9996 16
the 0.034721535 -0.017702376 0.0058763875 0.009406961 0.053717498 -0.010689678 0.02256233 0.018435767 -0.019141896 -0.008876351 0.052542336 -0.018506695 -0.0442248 -0.002840987 -0.0008537242 -0.055427942
and 0.041233107 0.041742105 -0.082158044 0.0006861748 0.024711473 -0.006185825 -0.014232788 0.067550614 0.01744989 -0.022139115 0.068236224 -0.02316561 -0.09094306 -0.035326067 -0.02207374 -0.05280295
a -0.010518918 0.040048577 -0.04615535 0.019870682 -0.016212566 0.026463829 -0.0435698 0.0327811 0.022309616 0.0038740963 -0.0063919816 -0.02195162 -0.026649335 -0.044314083 -0.05142856 -0.0005157727
of 0.018569602 0.03437279 -0.03280784 0.008460002 -0.025065081 0.0019743745 0.002081021 0.0138908895 -0.047172435 -0.077752374 -0.004976716 0.03343192 -0.06773354 -0.039806258 -0.06295674 0.0197992
to 0.06573484 0.00050739606 0.0019279735 -0.016929677 -0.047775425 -0.0020418263 -0.05812538 -0.026999582 -0.004577223 -0.057526983 -0.053781435 -0.00017813643 -0.062895425 -0.0027057114 -0.032243732 0.007500659
is 0.039322715 0.012774583 -0.05598295 0.040661804 0.0036685965 0.039370205 -0.021545853 -7.049661e-05 -0.03254108 -0.011418869 0.01628854 -0.030873459 -0.018768784 -0.0038633584 -0.07729893 0.028282147
br -0.032403305 -0.010855116 -0.01832798 -0.046950035 0.012865238 0.01965588 0.0040787323 -0.04335196 -0.037783977 -0.048792552 0.007836696 0.027094929 -0.07001735 0.023879299 -0.02844579 0.01686484
in -0.003550205 0.022698317 -0.04922571 0.051286146 0.04930267 -0.04142479 0.014849124 -0.0454723 -0.0016296881 -0.0787304 0.0028845235 0.035504438 -0.017299853 -0.030094033 -0.03168435 -0.022365434
it 0.019871844 -0.06816519 -0.056343444 0.04466489 0.06376509 0.04257816 -0.0068229013 -0.060297057 0.016554717 -0.06142934 0.04276648 -0.006619969 -0.005180746 -0.056721218 -0.00058275025 -0.0023321267
i 0.020049218 -0.010313493 0.024817154 0.02116367 0.044961955 -0.050656367 0.014655618 -0.020784978 -0.0021258276 -0.05832027 0.030201603 0.00070130103 -0.034144692 0.013751418 0.024976423 -0.01678874
this 0.06279559 -0.022128375 -0.029014258 0.013340788 -0.028719766 0.04339809 0.004969931 -0.023259709 -0.04940252 -0.056096 0.03454829 0.04687761 -0.027112795 0.0146549195 -0.042886533 0.031575568
that 0.014892012 -0.022794072 -0.032490116 0.04382981 0.062311552 -0.008882232 -0.030558826 0.07301352 -0.029788155 -0.030761706 0.032613512 0.014293593 -0.04846839 -0.010496186 0.0077218874 -0.003536091
was -0.00848767 -0.06683637 0.02162681 0.010119634 0.004276475 -0.0061277472 -0.065754436 -0.028772267 -0.047199715 0.025887923 -0.0204311 0.05134018 0.046010885 0.00713494 -0.01688499 0.003432373
as -0.0048738737 0.065826744 -0.004313708 0.04571069 -0.021837145 0.037094124 -0.037679568 0.012897876 0.008583744 -0.04994084 -0.024236279 0.015623018 -0.023309173 -0.042352244 -0.039550323 0.034991454
for 0.019475773 0.0034631763 -0.054193452 -0.010780196 0.023885459 -0.0059088045 0.012452055 0.0003381317 -0.023487013 -0.09530086 -0.009500843 0.06082404 -0.0044069854 0.00020976356 -0.060084686 0.010611495
with 0.040030092 -0.011490312 -0.05062958 0.010947123 -0.020927977 0.005949824 -0.067406446 0.032696806 0.030993331 -0.005044175 0.046250306 0.05568111 -0.054663107 -0.0076448927 -0.046041474 0.012219419
movie -0.02100717 -0.045868825 -0.03001682 0.044536345 0.018058077 -0.0040179635 -0.031825297 -0.05280621 -0.03325578 -0.017114725 0.026686052 0.050508544 -0.04118327 -0.028652051 -0.038484327 -0.014470617
but -0.054262813 -0.00089833484 -0.027921747 -0.014570577 0.023274397 -0.018033972 0.014830327 -0.020541184 0.0031560287 0.040727127 -0.040437568 -0.0046134437 0.07784963 0.030914124 0.027031753 -0.025243517
film 0.013440235 -0.07830429 -0.046710186 -0.012601836 0.037689928 0.052261546 0.016964938 0.0010895615 -0.028342567 -0.06950522 -0.00053229433 0.02948855 0.01087013 -0.0011943891 -0.0350701 -0.06205755
on 0.058335792 -0.023094561 -0.03815144 -0.026367621 -0.0021865848 0.041086886 -0.0108647235 -0.041493386 0.056729086 -0.081225716 -0.0022616596 0.038295392 -0.0751657 -0.05220321 0.00491582 8.826501e-05
not 0.016222535 0.052008294 -0.010166779 -0.091795534 -0.031681217 -0.060910538 -0.04890018 -0.08483518 -0.067825206 -0.03183389 -0.08249179 0.061000325 -0.009299699 0.010944724 0.032206707 0.008229002
you -0.0192061 -0.02085369 -0.009538797 0.06941575 0.026586808 -0.010711949 0.016039016 0.02167855 0.05564976 -0.06809548 0.010082385 -0.018208874 -0.077650234 -0.0339761 -0.028537292 0.003221394
are 0.008980632 0.03167556 0.0028970821 0.030608844 -0.0060564475 -0.005024213 0.033396736 -0.036791958 -0.04042439 0.0037842854 0.021157473 0.010835072 0.015260035 0.048641015 0.012162342 -0.00888666
his -0.032541458 0.034173332 -0.038540512 0.03321414 0.059559774 -0.0105230585 -0.019277934 -0.016543686 0.05887899 0.00785252 0.018765861 -0.07741093 -0.028701797 -0.046546202 -0.063032195 0.00011514697
have -0.0058236797 -0.07395447 -0.050293155 0.0019205573 0.0020973482 -0.03134033 0.025669299 -0.0007226929 -0.010472224 -0.06811879 0.04270843 0.014315281 -0.08335315 -0.024398217 -0.019783946 -0.0006630661
he 0.029108329 0.012159658 -0.028289407 -0.013426507 0.041727792 0.014780452 0.03674713 -0.0042654397 0.013197676 -0.0024265067 -0.026107319 -0.003753798 -0.008898929 -0.039860286 -0.029855214 -0.05145373
be 0.018831871 -0.05492567 0.024760632 -0.02094597 -0.05571922 -0.07163764 -0.029029718 0.0040738406 0.010525348 -0.008016548 0.010997649 -0.019872406 0.009984688 0.03948529 -0.046596892 0.029528387
one 0.08696355 0.033807144 -0.0625903 -0.050196487 0.063555375 0.015071593 -0.08090405 -0.07092997 -0.04616251 -0.09191167 -0.0019249687 0.048687514 -0.0654049 0.002977571 -0.026178258 -0.006311912
all -0.008071453 0.011347288 0.0052355346 0.01043593 0.03215443 -0.023671677 -0.05682481 -0.019631652 -0.00968584 -0.03598104 0.046703357 -0.05844632 -0.06689979 -0.057193935 -0.06327795 0.02115254
at -0.013394653 -0.021203868 -0.047152672 -0.013873995 -0.010524886 -0.010735677 0.02919504 -0.0065523647 0.026414244 0.017839417 0.04290087 -0.015299202 -0.015325124 -0.030627063 -0.019666243 0.037709337
by 0.051907163 0.018470207 0.006610064 -0.038011566 0.043115932 0.00020896702 -0.06240573 0.028152576 -0.032532014 0.035247996 0.0106653655 0.012175713 0.0010879254 0.012963377 0.007412935 -0.015625266
an 0.042075314 -0.016007895 -0.028433912 0.03952983 0.020209467 -0.0063128513 -0.0026782816 -0.05636634 -0.022021562 0.03314016 0.049338654 0.011825695 -0.019273963 -0.005079692 -0.018252287 -0.0140570495
they -0.02974512 -0.069218084 0.022533221 -0.0143821 -0.008246189 -0.016618168 -0.04416671 -0.042612348 0.0019282203 -0.02315427 0.04416706 0.00028708583 -0.041781038 -0.032798935 0.033731304 -0.041580718
who 0.0066683423 0.025612392 -0.05041283 -0.012214618 0.07630883 0.007837791 -0.024606925 0.014634875 0.045850646 0.02460907 0.03304583 -0.04673789 -0.029159704 -0.03388192 -0.0030782318 0.020177798
so -0.003801684 -0.023873264 -0.003219614 0.031207757 -0.00014020663 -0.03181618 -0.0188379 -0.029597087 -0.0021477244 0.032713063 -0.023399884 -0.025840305 0.0016830228 0.014093346 0.002247705 -0.059892684
from 0.09165652 0.01822435 -0.029019633 0.011459136 0.04178521 -0.039155394 -0.056742612 -0.049634233 -0.020150427 -0.00352587 -0.035476718 0.063097745 0.03621316 -0.013675933 -0.02481527 0.039174464
like -0.005574275 -0.054887958 -0.023951013 0.03677847 -0.027654594 -0.04608936 -0.029041039 0.005657577 0.029796181 -0.021630343 -0.012338817 -0.022595057 0.009688414 -0.052125484 -0.014616084 -0.026957862
her -0.05706827 -0.05140689 -0.039339542 -0.013383618 -0.0010408312 0.0647669 -0.02520064 -0.006110327 0.06714687 0.044519536 0.016318958 -0.008811847 -0.024984114 0.0051574553 -0.01936913 0.0066396017
or 0.006926462 -0.0110943215 -0.0032066172 -0.0012642257 0.04609256 -0.027074397 -0.021470355 -0.053857 0.004604698 -0.037141934 -0.027590206 0.017388398 0.010887878 0.0016581615 0.026434388 0.013914559
just 0.0051288363 -0.03863743 0.003421575 -0.055672526 -0.015601114 -0.0075857765 -0.045358926 -0.05900977 -0.029732542 0.0069194157 -0.08839521 0.033532158 0.07268524 0.033349246 -0.002765079 0.09196932
about 0.08057912 -0.044653885 0.03145585 0.016122362 0.0008902114 0.014503961 -0.030559883 0.0026386883 0.02566975 -0.05314791 0.031011255 0.014882991 -0.03265558 0.020725476 -0.012424229 0.013382741
it's 0.025995674 0.037294097 0.0022831662 0.022099135 -0.016304387 -0.032472856 0.020847801 0.017304564 0.015147466 -0.017481761 0.025634805 -0.05251525 -0.05074117 -0.0054852897 -0.07582378 -0.039597847
out -0.019287381 -0.06812322 -0.023756055 0.02465743 -0.009594451 -0.025903871 -0.052506186 -0.04202239 0.07116148 -0.053083435 -0.025539706 0.035795253 -0.055082716 -0.002354991 -0.036862113 -0.06763089
has -0.00808405 0.074881494 -0.044323336 0.01846037 0.023550063 -0.02055973 -0.037860923 0.046801586 0.0143308295 0.0009719174 0.010974454 -0.021064507 -0.01131001 -0.0074651646 0.009401259 0.055470694
if 0.048722688 0.023443509 -0.038871944 -0.061229344 0.02542989 -0.03228007 -0.07584089 -0.066769026 0.041832045 -0.0696277 -0.05345937 0.030823195 -0.099270016 -0.0136420615 0.047379293 -0.0029432666
some 0.047729917 -0.03620649 -0.056845564 -0.0034319127 0.014175708 -0.026412088 -0.057159536 -0.017041972 0.030911332 0.052253906 -0.0035925321 -0.050867256 0.0069157886 -0.014744105 -0.06461272 0.044232953
there 0.021140339 -0.09581654 -0.013482025 0.021198658 -0.019740775 0.028139433 -0.02657082 0.005590038 -0.028261052 0.004551176 0.016997341 0.0124408435 -0.0052122963 0.058058217 0.03938622 0.02413229
what -0.033127174 -0.020003483 -0.08736881 0.03669268 0.04295487 0.012443899 0.03491449 0.06918108 0.010626051 -0.007325063 0.087134056 -0.05252558 -0.01701801 -0.09127101 -0.009949738 -0.00011974681
good -0.042731747 -0.054711774 -0.09553332 0.024443477 0.05970623 0.07940543 0.020657558 0.058588296 0.014358185 -0.011516409 0.067131855 -0.011512559 -0.05855202 -0.047466036 -0.07133238 -0.07372829
more -0.04798778 -0.0067111743 -0.011133075 -0.0139562255 0.04791367 -0.010925769 0.030072978 -0.01810129 -0.0060398704 -0.073502555 -0.02823771 -0.023061525 -0.045298483 -0.009879941 -0.08046511 0.012696073
when 0.0101873195 -0.008748698 -0.0059964107 -0.005556713 0.035441812 0.011393597 -0.0403682 0.009530364 0.022238523 0.023690907 0.013290508 -0.061703373 -0.03165297 -0.013661894 0.0077162413 -0.018056473
very 0.025009997 0.0911197 -0.060152046 0.07054475 0.029781241 0.04495747 -0.037536606 -0.00610106 -0.02066642 -0.027968336 0.046936996 -0.034264334 0.034733415 -0.0025234371 -0.020332312 -0.04214734
up -0.008934139 -0.004248385 0.023640303 0.0075359093 -0.039259326 -0.024749916 0.017322438 -0.03984987 0.016551713 -0.023081409 -0.018343963 -0.026769973 -0.0018523315 -0.024481295 -0.055533405 0.002311286
no 0.06585806 0.04204489 0.020872252 -0.023181774 -0.10809575 -0.044779893 -0.059817348 -0.09027901 -0.052489407 -0.05275249 -0.059624024 0.07114882 0.09226697 0.05120445 0.06558112 0.0033221445
time 0.017921882 -0.088076994 -0.06663577 -0.023539456 0.009814961 0.0046196887 -0.077847295 0.023315666 -0.04238542 -0.07970567 -0.0061445553 0.049972985 -0.09598088 -0.056836724 -0.038940888 0.039040938
she 0.017084273 0.013172951 0.026918333 -0.036526468 0.017985808 0.04093991 -0.015753007 0.024714718 -0.01626119 -0.0137232505 0.009617662 0.01375174 0.040481765 -0.04009749 0.038456995 -0.0006266831
even 0.02011579 -0.023618229 0.0022949905 -0.0071513355 -0.032430664 -0.048849903 -0.009107845 -0.0097866375 -0.02286553 -0.012973277 -0.027564093 -0.003906892 -0.011476589 0.059449818 0.02836894 0.06844745
my 0.0036264157 -0.10642773 -0.09960645 0.09129175 0.006539274 0.008278063 -0.0006767737 0.07819866 0.027376918 0.0187463 0.034352005 -0.08593449 -0.05552738 -0.039753314 -0.035572764 -0.08402513
would 0.05928827 0.031446155 0.017284807 -0.057718676 -0.022950461 -0.023691056 0.0018912227 0.018597232 -0.043254256 -0.0771861 -0.0374299 -0.015159851 0.05131965 -0.01844741 0.034926433 0.04807784
which -0.012613871 -0.015645206 -0.0105601745 0.04997334 0.0071478668 0.026991472 -0.0067980243 0.020829039 -0.013829708 -0.011326312 -0.024238069 -0.009191273 -0.0184354 -0.017775416 -0.049779452 -0.005727769
only 0.032692485 -0.04345381 -0.02729945 -0.03413982 -0.008927889 -0.011408544 -0.08248484 -0.01694054 -0.0074622505 0.002925202 -0.008372704 0.014670131 0.023137 0.042630803 0.010253811 0.0556717
story 0.023610042 0.0023867097 -0.03987345 0.004799626 -0.010188752 0.038184363 -0.01693058 0.008207464 0.045478426 -0.07816186 0.03569234 -0.049445666 -0.05521453 0.007985 0.008093507 0.045366768
really 0.0070550083 -0.028175488 0.04384121 0.018728966 0.01890655 0.002162802 0.00038354367 -0.053711515 0.025950443 -0.022676084 0.0069470094 -0.015125302 0.053081725 -0.0026729899 0.056990705 -0.019018808
see -0.0039997813 -0.076657295 -0.048285283 0.06301101 0.014413938 -0.010997197 -0.009409611 -0.013093831 0.01736716 -0.122212 0.04691302 -0.008473312 -0.12385257 -0.080539994 -0.035117272 -0.038978826
their 0.021867337 0.00042151468 -0.01622687 0.044283222 0.017553274 -0.020138567 0.021513633 0.029419009 0.026190894 0.040032163 0.032810852 -0.008053955 -0.029099187 -0.02595646 0.0028264895 -0.05067936
had -0.06679708 4.0742947e-05 -0.001120409 -0.0017063171 -0.018535372 -0.046789378 -0.03398254 -0.024613068 -0.004124904 -0.0060309875 -0.014386905 -0.026544508 0.047342196 -0.059977077 0.010737444 0.047704387
can 0.012302944 0.003931803 -0.05753277 0.014996312 0.01690063 -0.031607196 -0.0056550354 0.0148722185 0.031337924 0.011461524 0.0076974384 -0.01226698 0.016698087 0.035102215 -0.049748875 0.025024911
were -0.030802136 -0.03385311 0.038336374 0.024850883 -0.011789424 -0.019477218 -0.057046816 -0.0042130565 -0.047918 0.0067456025 0.05144019 0.049382012 0.05438533 0.053756896 0.0038203138 0.029146686
me -0.0042697513 -0.076242745 -0.09489417 0.01465952 0.0045659705 -0.0018992297 -0.021414803 -0.020003565 0.08099036 -0.019290794 0.04462102 -0.043816905 -0.038451776 -0.013822349 -0.005882135 -0.0571751
well -0.062219497 -0.06689152 -0.11316334 0.042618595 0.041954085 0.032778293 0.01626343 -0.012676567 0.09172596 -0.017021086 0.09188795 -0.08965911 -0.13277338 -0.07210175 -0.1096106 -0.08641981
than -0.017197981 -0.004427265 0.021720149 -0.017101169 -0.060701218 -0.028963763 -0.01533028 0.007475763 -0.03099941 -0.050540652 0.00011376818 -0.021846162 0.028713807 -0.019695796 -0.016825859 -0.01411386
we -0.0013441093 -0.038745213 -0.0628474 0.02265815 0.056542344 -0.017525839 -0.0016529985 0.05468426 -0.02266946 0.023074288 -0.020693228 -0.022331266 -0.028233122 -0.064003125 -0.03497122 0.015210148
much 0.065733016 -0.042808738 0.048298497 -0.055902094 0.012174323 -0.0073261913 -0.08989406 -0.08816985 -0.07589814 -0.03339336 -0.019773746 0.002139003 0.04242435 0.036775567 -0.020274203 -0.0005774585
been -0.011637473 0.04246011 0.008758887 0.028526325 0.025525635 -0.0612453 -0.010717692 -0.020132098 -0.04336658 -0.033998538 -0.01729749 0.022312792 0.012524791 -0.0012094374 0.04115084 0.03459345
bad 0.120074265 0.01725112 0.039076027 -0.06772015 -0.09146484 -0.11020377 -0.1608731 -0.12664978 -0.04875807 -0.056878988 -0.05287975 0.050968222 0.0855637 0.07076931 0.08493691 0.10221559
get 0.027126929 -0.033212073 -0.04505018 0.036010623 -0.01825508 0.041764446 0.04012445 0.05216601 -0.029538576 -0.054236967 0.029000482 0.01634298 0.0085401945 0.036365278 -0.034514472 -0.037704907
will 0.039961137 0.040310573 -0.090108 0.024921592 0.0007135335 -0.013107901 -0.03716729 0.006223285 0.037841365 0.0004708661 0.07108401 -0.061588183 -0.09925733 0.007888458 -0.051795144 -0.037237987
do 0.0150259035 -0.057866167 -0.029050808 0.006895012 -0.02632193 -0.028798573 -0.06744528 -0.01320698 -0.042317163 -0.08002332 -0.027336666 0.028799202 -0.030112585 -0.023127336 -0.022640424 -0.042495232
also 0.0026539452 -0.036258046 -0.05598862 0.077236 0.05601261 0.08472849 0.08217236 0.025583845 0.044463992 0.006564237 0.03933334 -0.08566531 -0.12006752 -0.08116747 -0.08942961 -0.035376944
into 0.03599175 -0.015046688 -0.026665008 -0.04895185 0.03088897 -0.04896941 -0.04096183 -0.047597364 0.015583561 -0.048526462 0.03155216 -0.046692323 0.026445445 0.018782154 0.0021844362 -0.037332118
people 0.03604788 0.028208561 0.018958637 0.014452275 0.02359932 0.022838341 -0.018645741 -0.01807103 0.05535422 -0.0644757 0.0100515215 0.021159131 -0.04846289 -0.056509994 0.024793766 0.017473027
other -0.048451297 -0.051203504 -0.048234444 -0.006319793 0.028043123 0.008426839 -0.03697597 0.04038662 -0.010138588 -0.0036610751 0.027618045 -0.05152094 -0.05770862 0.012284318 -0.042479824 -0.012235324
first -0.007763583 -0.058176663 -0.013210568 -0.010904871 0.061720345 -0.008994447 0.024876593 0.06879475 0.06666813 -0.0006889827 0.05449134 -0.011908373 -0.012448159 0.004908582 -0.0410284 -0.06141005
great -0.13650426 -0.07840061 -0.10881959 0.13236782 0.12409742 0.14378113 0.11879852 0.15448356 0.10156436 0.07364158 0.121841155 -0.13514732 -0.16582695 -0.12342967 -0.14357543 -0.16307351
because 0.034717377 -0.052656118 0.002608466 -0.038937047 -0.04906021 -0.06983013 -0.019018838 -0.05003626 0.018959451 -0.011953123 0.015859524 -0.008125719 -0.012755536 0.033571046 -0.00024313328 0.009684325
how 0.025410954 -0.023236567 -0.03350223 -0.05872615 -0.033932764 -0.020994172 -0.049141977 -0.016620498 -0.03447729 -0.016311903 0.038878225 0.052835826 -0.008248695 -0.0023456356 0.014439687 0.05248842
him -0.018193882 0.023261864 -0.0109506305 0.040995855 0.033810623 0.009367206 -0.04498959 0.027339557 -0.01160348 0.0075719217 0.041128144 -0.0032750869 -0.037815202 -0.024907535 0.015646044 -0.05821207
most -0.04620907 -0.008586661 -0.089931056 0.029284347 0.060553987 0.079807505 0.01783676 0.09810646 0.07825683 0.060676273 0.08883464 -0.122449085 -0.093359426 -0.070977755 -0.1076018 -0.05474152
don't 0.08438878 -0.08404511 -0.04722151 -0.021643763 -0.03417728 0.015794069 0.0041550165 -0.027955912 -0.03996698 -0.030683711 0.048772756 0.015067128 -0.051178217 0.03136097 -0.008998339 0.01611199
made 0.00751984 -9.528681e-06 0.029408844 -0.06480986 0.034679674 -0.051473398 0.015049814 -0.028526584 0.013247433 -0.035525486 0.015351824 0.07600714 -0.034140542 -1.6823882e-05 -0.0150703285 0.057702236
its -0.057942215 0.0038727282 -0.07119214 0.0023186794 0.03556808 0.030765 0.021268187 0.042680327 0.052306067 0.026631586 -0.02238895 -0.056280546 -0.066503845 -0.011099477 -0.016254086 -0.05172414
then 0.020495292 -0.046847768 0.052268036 -4.2917658e-05 -0.005301201 -0.010366664 -0.016854228 0.0016750492 -0.051524 -0.040772736 -0.06322572 0.09326285 0.024796017 0.0023976362 0.034322854 0.00064455887
way -0.012066746 -0.051352117 0.009795373 -0.019548068 0.016520014 0.037875246 -0.02470089 -0.017001718 0.060727693 -0.05228516 -0.011920133 -0.05038904 0.014835369 -0.024424518 -0.07038847 0.0201732
make -0.021499911 -0.05252708 0.020815404 -0.034195352 0.0036964552 -0.029695429 -0.019472748 -0.027956529 -0.017008081 -0.0114754075 0.01713622 0.043585412 0.04011412 -0.030593585 0.07188846 0.030383352
them -0.06508706 -0.0034095761 -0.014899312 -0.0054208953 0.0288868 0.027549636 -0.028475989 0.015771175 0.06481316 0.002514325 0.024252348 -0.03603438 0.015497086 0.0008354416 -0.03630468 -0.04813579
too -0.0026795259 -0.06772461 -0.012175138 0.004243149 -0.040608063 -0.040155865 -0.062020816 -0.030082744 -0.0216686 -0.033854257 0.024242511 0.019104462 -0.009655605 -0.03344533 -0.005612556 0.011412645
could 0.035836555 -0.0031972528 0.012046316 0.008006959 0.015836535 -0.05601807 -0.0044937334 -0.06279322 -0.066641696 -0.0032232339 0.0046874015 0.049011663 0.03767304 0.05700622 0.073588386 7.8305646e-05
any -0.016671281 0.010810788 -0.022868635 -0.018695634 0.032515347 -0.071622126 -0.051160123 -0.070057556 0.03509177 -0.041897856 -0.047754522 0.009119424 -0.025081607 0.045115802 0.032042403 0.044789404
movies 0.040788673 -0.021025283 -0.011320657 -0.02779236 -0.011415335 -0.006505188 -0.02876748 -0.0053633475 -0.038867626 -0.10670182 -0.024072548 0.035666008 -0.065800644 0.012579818 -0.01601169 0.013418234
after -0.032044463 -0.034712616 -0.015452611 0.053499073 -0.0133612575 -0.023524322 -0.007971288 0.025129128 0.053356666 -0.024100298 0.02830871 0.022045448 -0.00069226994 -0.00025037964 -0.061402213 0.025857838
think 0.02805047 -0.04654158 -0.05923348 0.046137042 -0.0060488796 -0.0053367014 0.027277807 0.037325993 -0.002043725 0.016784266 0.06392824 -0.043699984 -0.011318297 -0.028083643 -0.051463474 -0.057887625
characters -0.04176369 0.03181428 0.059416622 0.035127793 -0.0054375725 -0.023279594 -0.04825575 -0.04933728 0.016029181 0.0038213094 0.006278513 0.025403047 0.09281922 -0.016370622 0.023904072 -0.018283814
watch 0.052280772 -0.038897935 -0.07052438 0.04764433 0.03712663 -0.06323258 -0.012485207 -0.06592025 0.0042077196 -0.115503296 -0.021092005 -0.014814001 -0.04873539 -0.009133276 -0.048032336 0.0145646855
two 0.03068305 0.009164771 0.0012092658 -0.04858767 -0.047475852 -0.003024422 -0.047817614 -0.051275723 -0.012513462 -0.015294554 0.021937152 0.017080003 0.07370531 0.042152908 0.03667674 0.061839517
films 0.08220739 -0.043495033 0.007883422 0.027366057 0.002075237 -0.04937767 -0.011779815 -0.033313382 -0.036051854 -0.06367008 0.008931186 0.0025837708 0.009010581 0.03536453 -0.050973844 0.056567997
character -0.043774538 -0.06536133 0.008103958 0.024991676 -0.019627776 -0.007977142 -0.017146247 -0.0043806424 0.007735806 0.00051592826 -0.014027061 -0.023981154 -0.03139851 -0.038683053 -0.024548912 0.015967509
seen 0.017683368 -0.070722535 -0.03985278 0.03068495 0.124190986 0.0636611 0.011618181 0.03924097 -0.007981134 -0.048296314 0.051629007 -0.0469057 -0.12846327 -0.09068878 -0.07863618 -0.055757023
many -0.010735026 -0.012121671 -0.03126533 0.030548265 -0.006685711 0.05709468 0.045160897 0.028023941 0.06652991 -0.02819272 0.06136584 -0.03572108 -0.021871638 -0.00887281 -0.0010419746 -0.020886293
being -0.009820044 -0.008702057 0.039757628 -0.056352124 -0.05197727 -0.009318856 -0.05702811 0.030988052 -0.0050083823 -0.03110463 0.010706655 -0.031617705 -0.019950211 0.051036205 0.05195715 0.03202787
life -0.03895359 -0.044603296 -0.009520566 0.042659685 0.10073503 0.029692201 0.0406629 0.034458544 -0.0036246795 -0.0014064645 0.030181656 -0.037415612 -0.06632639 -0.05964821 -0.039911475 -0.021429585
plot 0.01392036 -0.009270231 0.03990593 -0.074871734 0.00950024 -0.046785105 -0.082312934 -0.051793456 -0.042811744 -0.0029450508 -0.07315895 0.0075631817 0.06684231 0.05602213 0.015369656 0.03283997
never -0.013317489 -0.08954684 -0.063133486 -0.00728615 0.042995643 0.018145816 -0.006892398 -0.007950729 -0.0078085735 -0.014944166 0.062525235 -0.079545 -0.06463521 -0.0004787493 -0.02959921 -0.07084324
acting -0.054379888 -0.024436688 -0.004239102 -0.069279246 -0.06878289 0.0048356634 -0.065135635 -0.023000425 0.012354608 -0.007880869 -0.004004514 0.028605742 0.079474404 0.06619336 0.049730424 0.06880254
little 0.015259143 -0.001288551 0.023780935 -0.0117377415 0.054276522 0.011764046 0.030726679 0.02083998 0.03900189 -0.027468706 -0.027575925 -0.034616888 0.04984734 -0.05014987 0.035254914 0.02683133
best -0.05353654 -0.07299096 -0.07516038 0.09704535 0.08718249 0.13644335 0.12973842 0.13495186 0.07071067 0.074608505 0.0911717 -0.06562886 -0.09000302 -0.09825185 -0.10085877 -0.11390035
love -0.03187761 -0.1027119 -0.0904571 0.04306914 0.041674193 0.1109049 0.050867803 0.06657841 0.03727847 0.053694926 0.09981145 -0.08546702 -0.09113317 -0.09238176 -0.09175924 -0.040817935
over 0.058098726 0.046431635 -0.007448765 -0.033805814 -0.07590113 -0.047638867 -0.03673695 -0.027430419 -0.032528695 -0.096363924 -0.025108159 0.013396911 0.07799793 0.07231093 -0.01752513 0.06251799
where 0.0406876 -0.035694536 0.01777511 0.024016172 0.011935248 0.011640424 0.027774774 -0.022575054 0.025445255 -0.026854984 0.0024569836 -0.037586853 0.028716037 -0.026492009 0.0046952725 -0.04099732
did 0.022266874 -0.0025374093 -0.029774284 -0.008521831 0.011324556 -0.00028683353 0.037354268 -0.06987609 -0.022897398 -0.11711182 0.013353089 0.01746839 -0.042556144 -0.03334173 0.012519513 -0.020091213
show 0.008743747 0.015414287 -0.018324118 0.017863777 0.010180876 0.016012775 0.030932017 -0.051643956 -0.037038796 -0.00930928 0.010555685 0.04517381 0.015639603 0.007667454 -0.059560753 0.03442918
know -0.001740549 -0.09607506 0.025352856 0.0498487 -0.01379391 0.019561553 0.016392892 0.00022206065 -0.0037365512 -0.043340046 -0.0069101937 -0.059405584 -0.030851068 -0.07652677 -0.027344031 -0.0800823
off 0.0142890345 -0.0064437273 -0.037966304 -0.01005919 -0.04042061 -0.050897088 -0.051363427 0.014571508 0.032109786 -0.03995708 -0.010949895 0.006520334 -0.013781995 0.0010213439 0.009193304 0.04337321
ever 0.031732388 -0.0090074735 -0.039641447 -0.037251774 -0.0029761381 -0.045474444 -0.062371638 0.011804775 -0.024327612 -0.08274038 0.017949386 0.047060855 -0.0115256 -0.018526226 0.023204193 0.003949042
does 0.035307102 0.0008279195 -0.032146946 0.02994341 0.032677364 -0.012193998 -0.020406263 -0.045409158 0.0020213868 0.0061680847 -0.047511153 0.014117719 -0.001914729 0.0396179 -0.048593402 -0.0084225545
better 0.048580848 0.029285882 0.06561642 -0.04190899 -0.028006583 -0.060388777 -0.069724046 -0.022135593 -0.09246203 -0.025293965 -0.04573275 0.045974795 0.032771513 0.0106215365 -0.03481737 0.02511703
your 0.049744155 -0.050690033 -0.098719865 -0.029625306 0.051778745 0.01010512 -0.09343205 -0.042250145 0.049337927 -0.09299646 0.09005805 -0.026985534 -0.0725596 -0.06255607 -0.07121958 0.021582458
end 0.011161801 -0.04232211 0.03675782 -0.03296756 -0.009148608 -0.024586843 -0.030098436 -0.042956594 0.025448937 -0.036508445 0.026940897 -0.002167547 0.03281644 -0.015217978 -0.03187079 -0.053142756
still -0.032758676 0.05918215 -0.042123355 0.08174391 0.010894324 0.030472616 0.06772084 -0.007777857 -0.005297571 0.0659281 0.07480877 -0.05691559 -0.081276305 -0.05453109 -0.026630506 -0.071446076
man 0.014220632 0.011229091 -0.010359508 -0.04595906 0.013490653 -0.019003768 -0.01215635 -0.01227746 0.009451714 -0.06251724 -0.004885003 -0.022897197 -0.047519762 -0.00419756 -0.0043699434 0.012760493
here 0.07030079 0.102783345 0.05528875 -0.09302558 -0.094962224 -0.050750837 -0.064336926 -0.05415977 -0.04417365 -0.10302437 -0.016235864 0.04088303 0.09744841 0.091822214 0.018165924 0.073883615
these -0.0043167993 -0.024451112 0.005434283 -0.027866947 0.0015715252 0.009083767 0.037452422 0.008511168 0.029896937 -0.058863655 -0.055406213 0.042334694 0.0013809768 0.0070560244 -0.022735827 0.0038603554
say 0.0012022863 -0.0729174 0.02882517 0.023053404 -0.0059799817 0.007499797 -0.036512233 -0.00012918479 -0.007524958 0.007073347 0.053829048 0.009659124 0.01974945 -0.016484892 -0.0024492666 0.025156925
scene -0.046459932 -0.01574798 -0.03504519 0.033295672 0.009240069 0.017558299 0.036301706 0.02641364 0.02705031 -0.07163422 0.010042867 0.04160554 -0.024720393 0.012269123 0.022794986 0.015827566
while 0.035686675 -0.038179882 -0.024086472 -0.031299155 0.044193175 -0.05907369 -0.009925919 -0.007176627 0.022517802 -0.05293213 -0.0007175594 0.04751442 0.046098873 -0.021721017 -0.04819437 -0.03561908
why -0.036163464 0.01946528 0.0161852 -0.060031973 -0.0698294 -0.027779179 0.009358504 -0.053551786 -0.057096846 0.021046242 -0.029049605 0.057047088 0.035603907 0.017257731 -0.0038334145 0.018804729
scenes -0.022111272 0.0024657582 0.055813782 -0.022491109 -0.072553866 -0.00069864444 -0.041290056 -0.06421035 -0.074834086 -0.051152315 -0.00050080824 0.014678851 0.06841649 0.013209421 0.0026764849 0.053126987
go 0.013596933 -0.04629855 -0.08458577 0.0023082937 0.013849797 0.045829255 -0.034141693 -0.022633195 0.0050006057 -0.05731411 0.028010454 -0.020565422 -0.08385951 -0.022686128 -0.03610884 0.0075824223
such -0.02368377 -0.020307327 0.011713929 -0.047287866 0.028889399 -0.011636566 0.0023951735 -0.042042665 0.013868499 -0.028224995 -0.025801202 0.054774586 0.024787493 0.05283982 -0.008770591 0.0050156494
something 0.079453774 -0.062887825 -0.039904986 -0.05204783 -0.015157646 -0.06712412 -0.04333176 -0.010801582 -0.0010429006 -0.058241785 5.8828606e-05 -0.027963411 -0.02733472 0.0086055 0.01548763 0.015047261
through 0.06842613 0.033689413 -0.050133675 -0.012713464 -0.001627194 -0.02847973 -0.057704512 -0.017348524 -0.039119665 -0.037011884 -0.017148718 0.032722175 0.047278922 -0.02610402 0.004866429 0.011723824
should -0.015311867 -0.0013926639 0.026262363 0.0391895 0.027601257 -0.030656252 -0.0003912411 -0.010917463 -0.046820574 0.009369897 -0.029831508 0.030985065 -0.071559355 0.034756858 -0.015098031 -0.024106134
back 0.031195464 -0.04039024 -0.04350521 0.01825067 0.05610594 0.016055552 -0.023916109 -0.034763556 0.029620513 -0.0558142 0.019405054 0.029630322 -0.037347943 -0.021539591 0.011040294 0.0058807023
i'm 0.047289982 0.036289353 0.011291637 0.002180236 -0.057367247 -0.08855163 -0.008737071 -0.079030015 -0.0003874122 -0.047896896 -0.05293383 -0.004863094 0.02216372 0.0707802 0.004164456 0.08848652
real -0.0380033 -0.030052865 0.020620504 0.04901548 0.06515351 0.058067787 0.022378169 0.01493522 -0.025316961 0.01790468 -0.014634018 -0.020926254 -0.038815804 -0.017933264 0.007577126 0.01856417
those 0.06426821 0.022900304 0.02650367 0.0035624825 -0.012247062 0.023652364 -0.005913578 0.0006253045 0.01738743 -0.04670506 0.016076514 -0.026341375 -0.03163081 -0.038009673 -0.013771852 0.008042951
watching 0.054907877 -0.050686393 -0.01585327 -0.06358771 -0.025150117 -0.03689204 -0.017677208 -0.07204863 -0.04738177 -0.09878385 0.0069734445 0.04806333 0.025001101 0.053149726 -0.043250035 0.038457356
now -0.023839304 -0.05410356 -0.049763747 0.05889648 0.06216024 0.013598406 0.005115835 -0.015219534 0.0095596 -0.0019409357 0.00873715 -0.05634753 0.010748748 -0.07572217 -0.0797185 -0.047603898
though -0.016615681 -0.007760934 -0.06583981 0.05079501 0.03763379 0.015018832 0.045681626 0.027729647 0.007001641 0.06988006 0.0042407615 -0.042826183 -0.0044845673 0.0054575107 -0.055617675 0.026613038
doesn't 0.05105376 0.02111667 0.050950542 -0.081327476 -0.016546836 -0.06952235 -0.062445264 -0.07016038 -0.027740464 0.02067803 -0.0053247595 0.07734628 0.063320965 0.06902421 0.08003573 0.08108935
years -0.034985133 0.046155293 0.038320977 0.024851363 -0.013541724 0.029420862 -0.053127218 0.0055910232 0.033023056 -0.0152214505 -0.034820534 0.029995894 -0.0005746939 -0.015474345 -0.03982198 -0.022507712
old 0.0019925535 -0.033381917 -0.0062935823 0.040422272 -0.012267992 0.04581439 0.018070702 0.010893019 -0.049366463 -0.06877002 0.04770984 0.0369076 -0.05170204 -0.00021728445 -0.03572716 -0.010051103
thing -0.03226529 0.012392266 0.06448459 -0.09826868 -0.089108884 -0.03720409 -0.02869371 -0.0356621 -0.016155832 -0.012838239 -0.0379381 0.07262046 0.101348266 0.012500837 0.043199576 0.0722204
actors 0.00900855 0.014641288 0.026854338 -0.0046899267 -0.06174008 -0.067445725 -0.001162847 -0.05118123 0.004560151 -0.017560745 -0.023174124 -0.005852683 0.046980016 0.06290872 -0.0069784247 0.03172538
work -0.00059135404 -0.03471479 -0.049475614 -0.008124089 0.065666385 0.03367028 -0.016091859 0.008345456 -0.009629096 -0.10634505 0.0029797105 0.018592622 -0.08213323 -0.030932344 0.015752522 0.000490487
10 0.055314694 -0.21010189 -0.1279915 0.03935573 0.124110535 -0.019989796 -0.14875773 -0.14804304 0.10353531 -0.3133124 -0.10135601 0.09520341 -0.122370645 -0.12885675 -0.13652968 -0.09309981
before 0.012573819 -0.035966493 -0.044321075 -0.015562018 -0.048088573 -0.04229373 0.0067614485 -0.057391252 -0.016905595 -0.072399 0.011124075 0.02763888 0.026396926 -0.06542346 0.041022595 -0.02072334
another 0.045631673 -0.020852007 0.038103413 -0.017191822 -0.03372816 -0.015009299 -0.069393784 -0.0572733 -0.038106114 -0.03584253 -0.028645493 0.016519025 -0.026222704 0.0446715 0.009525205 -0.005682433
didn't 0.06393232 -0.0062525347 0.061716586 -0.0502506 -0.023726283 -0.06845147 -0.07809866 -0.002830266 0.0012867749 -0.100745305 -0.018361071 0.024565903 -0.0060675563 0.02263902 0.060372755 0.027952712
new 0.0007479416 0.06959613 -0.010559754 -0.039331716 0.053728398 -0.03472074 -0.044276226 0.012074064 -0.0037550153 -0.045368828 -0.0021260863 0.021140996 -0.05446045 -0.0324073 -0.023114312 0.022339998
funny -0.030635936 -0.09182983 -0.04971684 0.060467217 0.06141597 0.0512225 0.060284924 0.011760488 0.029863803 -0.0048225406 0.05150235 0.011133147 -0.047601797 -0.08147671 -0.05225136 -0.083053246
nothing 0.051528156 0.06325077 0.050352678 -0.11793243 -0.043977432 -0.037878167 -0.09892292 -0.10865977 -0.08536124 -0.104493655 -0.073105894 0.056724776 0.10659295 0.09276949 0.030459123 0.074404545
actually 0.018216742 -0.023640662 0.039122716 -0.07298776 -0.028690422 -0.013844626 -0.063669175 -0.027178098 -0.065734304 -0.08371055 -0.024380973 0.001136354 0.047756948 0.08375839 0.030857844 0.020072639
makes -0.06359277 -0.040137626 -0.065951794 0.015493545 0.08774486 0.06890462 0.0097624585 0.05718979 0.003942165 0.01670846 0.08695297 -0.021063732 -0.0052488116 0.013768677 -0.03240635 -0.049057387
director 0.060373545 0.008999606 -0.0054196334 -0.06311792 -0.04576946 -0.0779571 -0.020216439 -0.016911546 -0.031206938 -0.07201342 -0.05633005 0.041518074 -0.0032539282 -0.008019995 0.028798155 0.017662058
look 0.016633475 0.0263885 -0.004499659 0.008629914 0.014889715 -0.019755635 -0.0048580514 -0.048110317 -0.065157525 -0.041530367 -0.023474336 0.022120794 -0.009878443 -0.0054467847 -0.034540266 -0.024144655
find -0.011206514 -0.061143454 -0.030310307 0.064666405 0.028614545 -0.0061654034 0.041412834 0.0068764645 -0.0007130199 -0.004344799 0.011261848 -0.0067896997 -0.11853618 -0.008329965 -0.07451228 -0.025324848
going -0.008237488 0.010659731 0.025450097 0.023618843 -0.006734612 -0.017493827 0.025252609 -0.0012099185 0.018775476 -0.06289281 0.038564023 0.049283218 0.023001999 -0.019057808 -0.0051882523 -0.010142717
few -0.066033006 0.039105106 0.047264658 -0.04219783 -0.029148461 -0.025370628 -0.007112816 0.021306321 -0.027376303 0.021370945 -0.00676294 0.056360483 0.021452833 -0.023992075 -0.011779618 0.0036408005
same 0.096219584 -0.04854097 -0.033197086 0.018908149 -0.06384932 0.0032786787 -0.019536857 -0.037106212 0.015408402 -0.074842565 0.016520988 0.04457877 -0.007278293 0.034425117 0.007425389 0.028544901
part 0.0023886992 0.016467202 -0.057373486 0.005134655 0.043887332 -0.0520121 0.0033334515 0.02810551 -0.036407802 0.012844846 -0.022282979 0.029244095 -0.062058967 0.021275606 0.035169363 0.042093504
again 0.03637838 -0.051137403 -0.03327036 -0.009028623 0.028459495 -0.003368725 -0.071180694 0.011651821 0.013812784 -0.117422715 -0.01429093 0.007550339 -0.07950847 -0.018540232 -0.08303817 0.028051766
every 0.0105379885 0.0044844956 0.009822242 -0.026074627 -0.013374627 0.013886188 -0.0016030747 -0.024850076 0.019309174 -0.05128676 0.009921352 -0.008053172 -0.00023798144 0.0035719234 0.044303294 -0.014792324
lot -0.0015569376 -0.00956231 0.007813253 -0.0045446716 0.057983343 0.022421334 -0.0021316586 0.08314597 0.007574409 0.07096589 0.023907105 0.008192605 -0.045387957 -0.059506934 -0.021625804 -0.08146875
cast 0.06497231 -0.035514917 -0.0832605 -0.001189369 0.058030736 0.016040435 0.024658019 -0.012814721 -0.022622492 0.008692131 0.063396424 -0.016552186 -0.05925692 -0.04700383 -0.06963959 -0.013438851
us 0.049313135 -0.0044041444 0.010104515 0.022352861 0.054652747 -0.02905086 -0.04793044 -0.026454084 0.052492175 -0.04616463 0.008825426 0.011969515 -0.06343074 0.019281406 -0.043921433 -0.059593476
quite -0.052075323 0.009561464 -0.03165126 -0.0068614534 -0.006290351 0.060633875 0.036160395 0.06402489 0.018432619 0.022760393 0.017092932 -0.043190703 -0.029267712 -0.034784082 -0.023709295 -0.058713976
down 0.062209148 -0.0595176 0.0088306535 0.011706125 0.016701577 0.016537856 -0.058445267 -0.06499314 0.0030063717 -0.09814493 0.032969598 -0.021039367 -0.015847214 0.0011932278 -0.0022466385 0.06763528
want 0.029816309 -0.06707626 0.002149228 0.0051383222 -0.055705052 -0.060448337 -0.015918858 -0.06225395 -0.027413359 -0.10126109 0.014472786 0.011757599 0.03346451 -0.025999833 0.010151633 0.05634685
world -0.06462072 -0.07480577 -0.035740927 0.030534482 0.043965187 0.06372968 0.061429624 -0.014186386 0.09474591 0.0046773567 0.02230535 -0.02145151 -0.07150501 -0.061262857 -0.081007175 -0.07449819
things -0.007866245 -0.05447465 -0.011735213 0.07344883 0.006756088 -0.013905526 -0.030545143 0.05539533 0.04378349 -0.012056426 -0.012130535 -0.062092494 -0.06847039 -0.07324913 -0.08100771 -0.06661919
pretty -0.048884496 -0.017901322 0.04795262 0.005681624 -0.050382305 -0.03264248 -0.038365547 -0.059774186 -0.013019225 0.032068916 -0.022722559 -0.030298267 0.02323661 0.019852115 0.030562285 0.0278345
young -0.024651444 0.012356477 0.0007849997 -0.025151074 0.014530686 -0.0066689365 0.038782842 0.009912773 0.032101367 -0.09131631 0.018654857 -0.018048955 0.032369692 0.041150287 0.002981674 0.016531378
seems 0.06754536 0.06433642 0.089857765 -0.051975194 -0.035242192 -0.025268992 -0.08464744 -0.0560678 -0.022603277 -0.07966494 -0.041601356 0.092934765 0.01892458 0.10135715 0.08444883 0.0068704817
around 0.014354609 -0.028805463 -0.007619769 0.0003448396 -0.025351565 -0.008248803 -0.0030069787 0.00054417545 0.028341755 0.042910285 0.0089031495 0.010765068 -0.03875203 -0.035140418 0.01172434 0.0041693132
got -0.0067676515 -0.06339548 -0.032877095 0.04309544 -0.026983496 0.017144999 0.034966264 -0.0050189476 -0.0009768272 -0.014617056 0.018252494 -0.043416142 -0.036535744 -0.012624321 -0.00053339306 0.00571839
horror -0.004049719 0.0031599593 -0.03608528 0.024547692 -0.036767866 0.03404672 0.04133833 -0.04422412 -0.008737436 -0.041365437 -0.067421965 0.03627536 0.037475605 0.024897315 0.03588728 -0.025413135
however -0.022876425 0.023802225 0.01069337 -0.034340147 -0.054726075 -0.003655999 0.0056585977 -0.079496 -0.012878081 0.03327701 -0.0053573954 0.046466287 0.09698365 0.04044873 0.07134274 -0.0004018824
can't 0.022985429 -0.06154489 0.010492456 -0.00092894793 -0.059809573 -0.0065833055 0.01786824 -0.06056838 0.023424953 0.010469026 -0.03199989 0.027910488 -0.02420971 0.004075348 0.04156022 -0.026608195
fact 0.0070646754 -0.014793373 0.03862517 -0.052122798 0.025180427 -0.006817821 -0.06115582 -0.02945962 -0.0046902094 -0.023610877 0.03194208 0.0052377563 0.03246994 0.007776479 0.015688825 0.040049683
take 0.01534216 -0.01830254 -0.012545054 0.02888271 0.019759689 -0.02167561 -0.033292826 0.02745413 0.047527183 -0.03757873 0.073830366 0.0035997357 -0.038471155 -0.02272238 -0.0073881545 0.007451468
big -0.05278629 0.006539901 0.04578882 0.04019119 0.013259972 0.048839234 0.039381895 0.036555905 -0.05400206 -0.0124175865 0.039523102 0.046701457 -0.028280348 -0.0049376655 0.002656584 0.040793404
enough -0.0046027396 0.048344098 0.12621205 -0.09692204 -0.09288344 -0.07239371 -0.11915968 -0.080216356 -0.04529429 -0.030920373 -0.04043216 0.038814355 0.08608926 0.07618195 0.100182846 0.036269184
long 0.0203888 -0.02278499 -0.031811167 0.03018976 -0.026281418 -0.023753047 0.010871824 -0.03253562 -0.008355251 -0.059524067 -0.024737647 0.05099346 -0.030661352 0.056182075 0.057158038 -0.026966974
thought -0.06213264 -0.047927964 -0.040546622 0.033550072 -0.022707801 0.034096673 0.0021168196 0.022260543 0.06206485 0.012859577 0.012021565 0.010759581 0.057070635 0.036521986 -0.033340164 -0.057420697
that's -0.0436716 0.0044754907 -0.019423278 0.034572642 -0.027660461 -0.028046476 -0.0077961734 -0.01298207 0.046867613 0.006024142 0.0074690287 -0.049941607 -0.064538255 0.011390613 0.020926587 -0.032436166
both -0.06456753 -0.05364501 -0.09765855 0.08011164 0.10172439 0.05620449 0.06793136 0.09246413 0.07511844 -0.019940302 0.037494786 -0.026439065 -0.04515466 -0.08311856 -0.031666458 -0.04778773
between -0.07209433 -0.0038424858 -0.059834786 0.07477837 0.014664935 0.088737294 0.05249342 -0.006714386 0.0779142 0.07551611 0.039042745 -0.042387586 0.047691964 -0.06523806 -0.05237494 -0.013913262
series -0.018777126 0.0025964812 -0.08073525 0.05567194 0.041001983 0.01903658 0.012000377 0.05086857 0.04297708 -0.023007503 0.041872844 0.0027488158 -0.06711294 -0.035085063 0.014434758 -0.01120403
give 0.088532396 -0.00198228 -0.00022887274 -0.013217052 0.011878082 -0.021163577 -0.043681964 -0.044741526 -0.0071582915 -0.0378638 0.011043482 -0.026026046 -0.052377004 -0.050538283 0.013105117 0.014951409
may 0.0020651384 0.0033874568 -0.056205027 -0.003842989 0.06255772 0.04527768 -0.025099566 0.08133301 -0.01680216 0.02733405 0.03627821 -0.05489936 -0.10934328 -0.045499124 0.0002731278 -0.063914366
original -0.008907785 0.055624217 0.029246662 -0.052271176 -0.06800925 -0.0493178 -0.011800345 -0.0703184 -0.057522494 -0.019125316 0.0034135699 -0.007781279 0.058540158 0.055304293 0.0068052416 0.07258385
own 0.023671132 -0.05812486 -0.051992368 0.012898473 0.023694312 0.042744327 0.049781084 0.06227061 0.038886633 0.066771634 0.038810268 -0.08578313 -0.010542441 -0.043934703 -0.085634135 -0.016618643
action -0.010966084 -0.03470084 -0.085775115 0.029192159 0.032112885 -0.005564225 -0.015417307 0.060902312 0.026029905 0.041654903 0.057014782 -0.024383113 -0.050590552 -0.039241575 -0.08001675 -0.07153806
i've -0.031204054 0.0035389878 0.024683919 0.023894317 0.040976867 -0.007907254 -0.05692414 0.0205234 0.038183443 -0.01120097 0.016732125 -0.011883437 0.008354284 -0.03910247 0.009636054 0.0055344896
right -0.014823068 -0.0047175465 0.0005930435 0.03572102 0.007443049 0.08150426 0.0501227 0.027608827 0.06874798 -0.0019041749 0.020916414 -0.012482709 -0.062233873 -0.061507195 -0.029968353 0.015225945
without 0.057252973 0.021939585 -0.02306114 0.024736386 0.04154343 0.043912664 -0.042151634 -0.017512962 0.039693393 0.046300042 0.06352332 -0.012121722 0.0017092766 -0.017352978 -0.0024890949 0.04637303
always -0.013044393 0.10039697 -0.004230071 -0.0062226527 -0.033103697 0.032456733 0.03974502 0.017750366 -0.0118589895 0.04181784 0.0103675015 0.008774811 -0.00014177465 0.014146325 0.030207396 0.005057832
times -0.04386734 -0.031644076 -0.010691246 0.08688663 0.055490244 0.041022778 0.011298095 0.07673796 0.07413365 0.021151789 0.01312288 -0.038139008 -0.097856 -0.097289614 -0.037358873 -0.032072023
comedy -0.046569996 -0.07085379 -0.023533866 0.0012533416 0.04722524 -0.0100817485 0.058250338 -0.012454818 -0.012589762 0.0058826637 0.07379872 0.0015238526 -0.027081516 -0.06593375 -0.0756471 0.005271636
point 0.097126424 0.027217824 0.024073128 -0.021681545 -0.019773476 -0.064577736 -0.02095716 -0.00020584234 0.004783497 -0.03857022 -0.02601422 0.06451411 0.039943445 0.08436136 0.0725977 0.05641535
gets 0.04115615 -0.015095982 -0.012614104 0.0056654066 0.03914348 0.013075432 -0.033435825 -0.028061396 0.014166916 0.020362802 0.030991182 0.04040326 -0.040062994 -0.03246357 -0.015094968 0.016373474
must -0.050401065 -0.086892866 -0.06916578 0.04659775 0.06916514 0.072163135 0.08097445 0.08237282 0.107492775 -0.040764242 0.05084015 -0.0866899 -0.07863994 -0.046384297 -0.017878184 -0.07128755
come 0.03372386 -0.041150156 -0.050966322 0.04517838 0.027315138 0.039858434 0.0026127747 0.05685039 0.051657293 0.0023633637 0.038458087 -0.06607073 -0.010630272 0.001659511 0.00977948 -0.053830627
role 0.052130852 0.033367656 -0.011805592 -0.04700456 0.018147713 0.043117166 -0.033047546 0.009161654 -0.029948995 -0.0031233467 0.0036706552 -0.03412618 0.03749809 0.028572492 -0.021704491 0.031636402
isn't 0.026237411 -0.0018134038 0.015620169 0.015062549 -0.047462147 -0.015652025 -0.05426808 -0.06428612 0.011341485 -0.049490593 0.0029928512 0.07098037 0.049109444 0.034872815 -0.0033712848 0.01209353
saw 0.0058702 -0.017964574 -0.0011689542 -0.008393585 0.030367278 -0.0070058685 0.023962531 -0.010938909 -0.02523745 -0.032922186 -0.03209877 0.040382326 -0.050254058 -0.002768733 -0.059193958 -0.036292702
almost -0.028336408 -0.015296969 0.0256397 0.05371639 0.0344403 0.080856904 0.05853299 0.07308874 0.003555531 0.005854834 0.0641539 -0.004539232 -0.03894484 0.019446192 -0.07422565 -0.056406885
interesting 0.03731185 0.08696304 0.026413461 -0.10531971 -0.026914032 -0.04486743 -0.052056234 -0.1070727 -0.109241515 -0.021068437 -0.050911445 0.062484488 0.0792693 0.08604031 0.009349327 0.124144986
least -0.0011961813 -0.06046597 0.01918971 -0.07747586 -0.117563516 -0.06289966 0.027035095 -0.090544745 -0.038043775 -0.045048002 -0.09496829 0.048562594 0.0913101 0.06452926 0.0782183 -0.0049557597
family 0.01833691 -0.06662957 -0.0539996 0.0075778817 0.11151319 0.020907333 0.028319074 0.061595146 0.04383128 -0.030681232 0.047935072 -0.003523715 -0.07778693 -0.06558322 -0.10807014 -0.074029945
done 0.009718447 -0.042095788 -0.013351551 0.022440396 0.013389423 -0.021673854 -0.063915715 0.016510865 0.017284857 -0.012292982 0.04662164 0.018333228 -0.040058855 0.0036049031 0.038126387 0.048241474
there's 0.018443784 -0.022894837 0.042990576 -0.08879227 -0.034724746 -0.04656145 -0.1056633 -0.093901806 -0.018030113 -0.03276368 -0.04962291 0.033286944 0.061188046 0.02986549 0.019587172 0.029384188
whole 0.0066786166 0.006135645 0.116989136 -0.06300058 -0.098616906 -0.012941889 -0.08444087 -0.028094633 -0.10038775 -0.018372871 -0.029721146 0.07307458 0.10716427 0.05499593 0.058735307 0.07909743
bit -0.067062184 -0.087265 -0.11580893 0.036668718 0.10959007 0.061025407 0.09206386 0.1142498 0.11440182 0.14393455 0.04165159 -0.082178965 -0.037303332 -0.11728471 -0.06638236 -0.043229636
music 0.014491337 -0.049841624 0.030921157 0.030637745 -0.01574399 -0.023845352 -0.020032309 -0.005694667 0.040145446 -0.0132190045 0.051798932 -0.041813526 -0.024969216 -0.0529992 0.04226087 -0.010817678
script 0.08344229 0.027681176 0.051431533 -0.07390463 -0.12328293 -0.07361636 -0.08909454 -0.08671009 -0.12658414 -0.08181566 -0.109299645 0.0976253 0.0744921 0.093009636 0.051711924 0.111468226
far -0.033657193 -0.009231557 0.048209567 -0.018776068 -0.08294258 0.0061130365 -0.06930962 -0.05239111 -0.040440835 -0.015514916 -0.008653828 0.043676827 0.0076961936 0.06226087 0.017310718 0.037464257
making 0.06599123 -0.0050724843 -0.023942657 0.0100576915 -0.030806908 0.003300423 -0.040692493 -0.06587279 0.003193711 -0.04979473 -0.029269699 0.060429078 0.033800583 -0.029136421 0.018093824 0.05044095
guy 0.022890726 -0.011538353 0.006270002 -0.047985688 0.022259062 0.0018952305 -0.068780765 -0.019336488 -0.0064526703 -0.085671514 -0.027336033 0.0041089635 0.026709432 -0.007598794 -0.0119214915 -0.0071485806
anything 0.021638654 0.040909708 0.037380964 0.02107982 0.008120721 -0.025669023 -0.047151383 0.032721527 -0.047424525 -0.030901505 0.04068005 0.03131671 -0.018946176 0.05826108 -0.0011899067 0.005135162
minutes 0.0109919775 -0.044285342 -0.027898243 -0.005999697 0.013384014 -0.06286589 -0.08165394 0.0008688662 -0.009886818 -0.036304105 -0.0011549938 0.026677923 -0.0654774 0.044780757 0.0022030228 -0.0269319
feel 0.03677103 -0.026512705 -0.03712956 0.021144843 0.04582719 0.04047325 -0.020566162 0.032163266 0.013828064 0.048973095 0.027004195 -0.051649343 0.020521015 0.0225508 -0.059570592 0.006042692
last -0.01767471 0.027698753 -0.019151669 0.026362026 0.02552525 -0.05229569 -0.009164571 0.020862043 -0.020946538 -0.0008851652 0.0009712598 0.0022068012 0.012350527 0.02550835 -0.020893773 0.020900486
since -0.011276404 -0.07157944 -0.038183257 0.045171376 0.022809671 -0.011739095 0.032488428 0.010292776 0.017576931 0.06630274 0.03093259 0.022064107 -0.001771844 -0.030129872 0.01232285 -0.008595388
might 0.108606346 -0.002230257 0.060151808 -0.023927597 0.023080327 -0.025263617 -0.10340063 -0.023633802 -0.014355128 -0.07051969 -0.07328077 0.062383298 -0.03480428 -0.010193801 0.060523264 -0.01393194
performance 0.021732464 -0.01201304 -0.017485186 -0.0043221493 0.04905526 0.0012028068 -0.033756625 0.0362585 -0.02012822 -0.025862211 -0.001029508 0.0058018486 -0.021283336 -0.009517148 -0.0033619173 -0.020400621
he's 0.03913896 -0.0073709274 0.005242714 -0.052882016 -0.035678357 -0.06559825 -0.04997342 -0.020546116 -0.013962003 0.003720619 -0.043177627 0.0021402661 -0.058019232 0.056228667 0.0033080801 0.046268128
2 0.060084943 -0.0001590733 0.011185437 -0.07838147 0.026855256 -0.093318865 -0.06946422 0.0033890707 -0.082482725 -0.050848942 -0.06543839 0.07245942 0.04032441 0.069839254 -0.019819656 0.07952583
probably 0.08906896 0.08665499 0.051150694 -0.033809356 -0.021654062 -0.089593194 -0.017374316 -0.042354457 -0.016518407 -0.05153019 -0.02256203 0.004325857 0.047679126 0.021334901 0.1037698 0.030994935
kind 0.06781537 0.0024812398 0.045836277 0.0055793053 -0.07245353 -0.022492187 -0.07882174 -0.023463558 0.0040695467 -0.119384035 -0.0046203616 0.049198065 -0.032943517 -0.0025793666 -0.01272059 -0.017184809
am 0.037271474 0.029796148 0.044603772 -0.071203224 0.0032400524 0.0019020316 -0.048490122 0.0051122066 -0.019135192 -0.05093939 -0.05493439 0.06363364 0.036285695 0.011052307 0.037754443 -0.019708443
away 0.07999516 0.016303668 0.052995525 0.00034441124 0.0020370847 -0.036640592 -0.09858989 -0.04018959 0.00537817 -0.017023515 -0.0016245068 -0.009480696 0.046496533 -0.0039545107 -0.027780404 0.036656994
yet -0.008433827 -0.06258285 -0.12744687 0.026030611 0.03299816 0.036937855 -0.0052661104 0.07591135 0.080294766 0.0029177193 0.058109976 -0.086519 -0.03902454 -0.045631684 -0.12445856 -0.096286446
rather -0.047503397 -0.03185325 0.0025675558 0.057687357 0.03675365 -0.006335683 0.007995505 0.0016166051 -0.0061022835 0.026538273 0.011125491 -0.021359008 0.009743733 -0.007396767 -0.026278842 0.005278709
tv 0.05247894 -0.006169332 -0.082502685 0.045100857 0.0117237335 -0.01496055 -0.013508528 -0.008939566 0.008378848 0.0056065186 0.041261725 -0.056971677 -0.0410687 0.0031624192 -0.050481413 -0.028152905
worst 0.26894963 0.16580328 0.16702834 -0.2200865 -0.2023379 -0.21827824 -0.2259832 -0.17298497 -0.23071863 -0.18065505 -0.21488376 0.16300792 0.082172334 0.16815168 0.17694987 0.1871009
girl -0.034933157 0.033180084 0.045294456 0.016987216 0.013853025 0.029017366 0.005017117 -0.03152514 -0.026605668 -0.04139541 -0.025722155 0.038770076 -0.0060379994 -0.011119723 0.0350246 -0.025779879
day 0.034266487 0.061155237 -0.05242076 -0.039669994 -0.03480763 -0.042667862 -0.035129838 -0.060972467 -0.03671764 -0.015294752 -0.045864 -0.027035367 0.049274858 -0.04390056 0.010289432 0.048984345
sure 0.012298703 -0.024216942 -0.060909484 0.060119327 0.008242551 0.044571303 0.008902433 0.03347655 -0.034206495 -0.028078157 0.04565466 -0.024732389 -0.022223398 0.007915594 -0.012951934 -0.019935336
fun -0.10941269 -0.07188583 -0.14753382 0.09034486 0.17113625 0.0907289 0.0771919 0.11433338 0.09199744 0.11601384 0.11185784 -0.084597245 -0.13764077 -0.08326696 -0.1438359 -0.15431151
hard 0.019211119 -0.018284548 0.024203984 0.0047622453 0.0054723537 0.032168157 0.018756555 -0.02927272 -0.02298344 -0.0040686196 0.008618209 0.009757252 -0.0079983985 0.042200584 0.049441654 0.053800352
woman -0.019513378 0.072782196 -0.011285696 -0.0067108464 -0.025427021 -0.009398324 -0.016752424 -0.06809337 -0.029139489 -0.057518575 -0.035241038 0.011769596 0.061832998 -0.013417747 0.076982506 0.026364664
played -0.04607223 0.0328733 -0.002240788 0.053056803 0.062937945 0.042701267 -0.007012737 0.05634417 0.0044654068 0.04970449 0.053988703 0.0043474673 -0.078822784 0.010150236 0.0015258609 -0.048666824
each -0.033630416 0.058451828 -0.0086753275 0.050132107 0.070711985 0.08677679 0.025160259 -0.009196651 0.07344901 0.027243692 0.0015281255 -0.025512835 -0.0012185615 -0.018678045 -0.05162195 -0.060454085
found -0.035167873 0.042697605 0.026842535 0.014664837 -0.021907803 -0.03357378 0.024525141 0.0056494996 0.0063312966 0.011083557 -0.016682852 0.029047197 0.014117289 0.0120208645 -0.01587976 -0.023967387
anyone 0.07219095 -0.00093350036 -0.06899823 -0.023260165 -0.005399133 0.0320478 -0.085651174 0.033147175 0.008184645 -0.0576404 -0.0054041273 -0.0026078701 -0.023829315 0.037814274 -0.003160305 -0.03387748
having 0.048644047 -0.022841781 -0.024044251 0.053356614 0.014475582 -0.03940438 -0.014708626 0.042567793 -0.021341966 0.037381917 -0.016013293 -0.03107042 -0.043615513 0.005990231 0.007503681 -0.0041395505
although 0.047462646 0.003851124 -0.022426099 0.0037095658 0.023110539 -0.016251367 0.0108085 -0.009306235 0.06741081 0.04394872 0.061235063 -0.08267989 -0.046916667 -0.0688785 -0.021400442 -0.03895133
especially 0.0101837395 0.0018644378 -0.13039511 0.09322382 0.07667219 0.047434602 0.040262513 0.08858078 0.042714898 0.048207946 0.09189192 -0.11660173 -0.1464687 -0.11871952 -0.11148249 -0.09187338
our -0.04743028 -0.016407724 -0.061701365 0.08482939 0.05576814 0.03627288 0.022166876 0.02370251 0.025922399 0.05833969 0.036656857 0.0072735283 0.020544712 -0.07752469 -0.022998342 -0.03431462
believe -0.003519498 -0.012978582 0.0367196 -0.009580772 0.023215605 0.015355371 -0.021587437 -0.04519151 -0.04255491 -0.05750253 0.019764911 0.020529566 -0.004230611 0.012447564 0.0106694875 -0.022795169
course -0.002102002 0.014671778 -0.069324866 0.05856252 0.05268009 0.07143207 0.031854216 0.06261234 -0.030464154 0.027839955 0.07711852 -0.039311487 -0.08494869 -0.07767593 -0.0785996 -0.078283876
comes 0.092976 0.03983133 0.045253955 0.014943011 -0.054501124 -0.001831151 -0.06931891 -0.04211015 -0.031161893 -0.029660664 -0.053110223 -0.022015901 0.012777677 -0.030066598 -0.03728086 0.021362007
looking 0.0007781905 0.015776709 0.009919946 -0.050842404 -0.01325513 -0.03204335 -0.07609168 -0.025329873 -0.06858721 -0.035021514 0.008257831 0.06926461 0.0392575 0.03468369 -0.027435862 0.020870697
screen -0.057110786 -0.026507577 -0.0010412232 0.025216851 0.023005607 0.07891784 0.017256605 0.002655784 0.03031255 0.018876433 0.031126628 -0.012673206 0.0027935687 -0.043634158 -0.036705468 -0.043552723
trying 0.02150936 0.0048738667 0.0016529127 -0.03420411 -0.031949107 -0.045813713 -0.039298665 0.010866279 -0.05214065 0.0031985666 -0.06355215 -0.0026817988 0.0072484477 0.025853138 0.070933014 0.059804045
set 0.0304207 -0.0006765723 0.020827416 -0.020490998 -0.022485705 0.027069144 -0.025939971 -0.04969019 0.026717814 0.019802745 -0.0020680458 0.047837216 0.018217912 0.018469961 -0.002855735 -0.0072956625
goes 0.050827377 -0.008678327 0.027195431 -0.044977237 0.015622451 -0.029056842 -0.08369662 0.0045756707 0.004819348 -0.06854553 0.039125282 0.04337029 0.013570277 0.023896743 0.046030488 0.018794857
looks 0.0057320185 0.05390793 0.031838987 -0.089101024 -0.075166635 -0.08158195 -0.080494836 -0.037054647 -0.05550483 -0.08742732 -0.04644971 0.094190784 0.12678652 0.052744675 0.09219508 0.036970396
place 0.008179431 0.07444299 -0.020861832 -0.0006857057 -0.021968946 -0.013139361 -0.07685692 -0.02032756 -0.04195165 -0.018246604 -0.030346712 0.055121027 0.03706777 -0.01686365 0.03993756 -0.014143469
book -0.048774242 -0.002099887 0.06283217 -0.053962093 0.024845362 0.00916688 -0.05539948 -0.027209267 -0.028189732 -0.009035615 -0.005933589 0.011282776 -0.010976021 0.012949426 -0.03391533 0.051595274
different -0.031941094 -0.010622055 -0.047638975 0.022111924 0.03601922 0.010254091 -0.012089539 -0.0010563184 0.0065346565 -0.032842938 -0.014947023 -0.042206943 -0.01836206 -0.011233903 -0.03996577 -0.061397918
put 0.086001255 0.030072777 -0.04561312 -0.04085017 0.039342433 0.010007907 -0.016788196 -0.0076289494 0.05424347 -0.086954825 -0.019250978 0.024322098 -0.06000608 0.001738743 -0.014866677 0.031878352
ending -0.06037736 -0.0383779 5.1468764e-05 0.052244 -0.01154389 0.06329416 0.00018445219 0.019747267 0.04736971 0.01779276 -0.004723932 0.011499444 -0.008795767 0.00046857868 -0.008078001 0.021239573
money 0.058247775 0.025873905 0.0449851 -0.07410903 0.02278427 -0.0818187 -0.07379069 -0.03205349 -0.07442675 -0.0984476 -0.014413124 0.09070179 0.020985112 0.03560167 0.022985695 0.047892004
maybe -0.0005288814 -0.003452491 0.061163366 -0.031909015 0.005670996 -0.023577372 -0.02145869 -0.0132099595 -0.00063053874 0.023580885 -0.047997937 0.038906954 -0.028872227 -0.024006095 -0.00042252854 -0.01967272
once -0.020252235 -0.05896886 -0.058335993 0.0022813946 0.046382632 0.0038305514 0.021074219 -0.01786521 0.05041103 0.06940664 0.02909823 -0.017746465 -0.041582778 -0.0999479 -0.061739363 -0.0604353
sense 0.015703784 -0.0772905 0.03730524 -0.042158306 -0.0016955943 0.011275727 0.018012825 0.019950243 -0.029778292 -0.03174107 0.04109895 0.026598476 -0.025544537 0.05581464 0.010605623 -0.0057770573
reason 0.044398405 0.021406814 0.11281351 -0.051648747 -0.10969707 -0.090103224 -0.039592184 -0.048998848 -0.10024269 -0.064929895 -0.063065566 0.033039473 0.10034493 0.061125223 0.03444865 0.04270273
true -0.049166802 -0.032924443 -0.11966664 0.033606574 0.026054429 0.09566227 0.029265014 0.00065550505 0.10670897 0.023326265 0.07594012 -0.06473523 -0.03432343 -0.11579615 -0.042021774 -0.06625384
actor 0.045358982 0.010439827 0.011360704 -0.056891378 -0.021638561 -0.05458068 -0.020121451 -0.0032567496 -0.03572403 0.019669075 -0.06268635 0.06326227 -0.02646082 0.053574976 0.04709828 -0.023470012
everything -0.03825051 -0.086267054 -0.013904603 0.02815912 0.09113067 0.057627242 0.042101696 0.08951309 0.10363267 0.13309523 0.11970103 -0.11095173 -0.033705644 -0.049713198 -0.1043381 -0.04314179
wasn't 0.05000333 -0.011459611 -0.004311393 -0.028120484 -0.041531716 -0.011541043 -0.03165117 0.0138352215 0.004378693 -0.04808374 -0.06244023 0.016446762 0.058372382 -0.010110593 0.033326425 -0.024265444
shows -0.066697866 -0.08595594 -0.17241924 0.15436378 0.16583759 0.16088372 0.06286581 0.12961105 0.1568951 0.05879028 0.10001176 -0.07896881 -0.10952259 -0.12594645 -0.10547874 -0.13149014
dvd -0.08554634 -0.047725268 -0.07078046 0.08915419 0.10523867 0.03700682 0.01331263 -0.02804369 0.0908162 -0.05912113 0.00026503712 -0.027072111 -0.12361835 -0.11741994 -0.013032866 -0.08057708
three 0.050736543 0.004005817 0.052584138 0.005155398 0.00743352 0.006812543 -0.032044265 -0.0066673663 -0.004454189 -0.003478477 -0.07187195 0.0730809 -0.01501887 0.044180464 -0.018737577 0.047385294
worth -0.039108355 -0.1599084 -0.119196825 0.13517985 0.13115904 0.07593708 0.044358548 0.06510025 0.1372268 -0.039115172 0.05353918 -0.10149409 -0.16125622 -0.07267642 -0.079660825 -0.096144035
year -0.062774 -0.007606718 0.049106557 -0.037350778 0.006894672 -0.033491034 -0.019128544 -0.06479591 -0.026768789 0.007592157 -0.012570175 -0.028478151 0.06819706 0.008180785 0.0486938 -0.025904415
job -0.025795534 -0.11292768 -0.100059904 0.11555358 0.113965996 0.070025444 0.07480198 0.04490401 0.032111607 0.020280434 0.12258138 -0.08873392 -0.12954947 -0.07346997 -0.08843761 -0.067461416
main -0.032171354 0.0011461353 0.004891223 -0.01566459 -0.041551605 -0.015984807 0.009877149 0.018933432 0.01966268 0.019682204 -0.06403673 0.046216216 0.06602809 0.03289094 0.054039482 0.035022344
someone 0.07704225 0.026310282 0.080493726 -0.04743337 -0.11142851 -0.09152457 -0.06230791 -0.056491125 -0.06243761 -0.08915038 -0.024943274 0.033141904 0.09304852 0.11211499 0.053150233 0.111103624
together -0.0010287045 0.009041479 -0.07890695 0.034870468 0.03137884 0.033043664 0.014336346 0.03233281 -0.0140685355 -0.02559948 0.00817451 -0.023054065 -0.024465846 -0.0760858 -0.042324346 0.016010577
watched 0.019934762 0.009492955 -0.024322985 -0.04827661 -0.0049026757 -0.022989387 -0.019392794 0.00683534 0.002905705 0.009787536 -0.06419382 0.06539158 0.038022436 0.048346043 0.059639756 0.0019358053
play -0.030566763 -0.04429915 0.018196147 -0.029382253 0.033898365 -0.060059346 -0.060886547 -0.028238248 0.009308281 -0.08407389 0.03714775 0.036760997 0.037611865 -0.022926278 0.019898215 -0.011577642
american -0.054251462 -0.021107577 -0.098686114 0.06492529 0.057319712 0.07277428 0.050933987 0.036411233 0.010608769 -0.0025735311 0.014752201 -0.07340772 -0.108904704 -0.030146258 -0.019683745 -0.018814333
plays 0.09175418 0.013515304 0.021099225 -0.06445919 -0.011599749 -0.029695773 0.00663497 -0.019119002 -0.05151902 -0.085230835 -0.032200564 0.036348894 -0.010756931 -0.0047002085 0.004364433 0.042812202
1 0.23164368 0.008934585 -0.0005006982 -0.073172666 -0.014130075 -0.10178422 -0.1557683 -0.03146964 -0.04889866 -0.16800573 -0.0037347716 0.12229807 -0.008656928 0.07629833 0.074083455 0.048492774
said 0.04352571 -0.018636733 -0.021833483 -0.010968929 -0.005325725 0.009361332 0.030872554 -0.013152782 0.040632218 0.022186352 -0.055472657 -0.025733698 0.039382413 0.035518445 0.0038584112 0.059180677
effects -0.019139303 0.008486932 0.03420932 0.025661575 -0.07018499 0.005463022 0.020280207 -0.06710869 -0.01601011 -0.01133206 -0.040074874 -0.011640792 0.040287375 0.056073047 0.04933259 -0.031438287
later -0.04721313 -0.045177404 -0.045951083 0.0052706026 0.044402353 0.006792889 0.06797848 0.07398669 0.002124592 -0.018443473 0.05540649 -0.04746763 -0.041094456 -0.0002983933 -0.09271625 -0.072636686
takes -0.03600826 -0.035502736 -0.038472548 -0.027802804 -0.033527285 -0.0294277 -0.010011513 0.0054825936 -0.043695338 -0.034941595 -0.012467187 -0.043552015 -0.020122541 -0.03542651 0.011385875 -0.018215468
instead 0.12842752 0.050246775 0.046582464 -0.08946398 -0.040543452 -0.09135856 -0.1303455 -0.12611249 -0.113420345 -0.101676784 -0.090485066 0.07849721 0.032347873 0.119199224 0.092236735 0.11894194
seem 0.06972824 0.03259949 0.085729495 -0.04069481 -0.054223474 -0.020584654 -0.013705578 -0.10283524 -0.023740033 -0.078777626 -0.035017 0.050088696 0.06007163 0.08503327 0.008334572 0.03389105
beautiful -0.07561776 -0.00897034 -0.03263985 0.04152104 0.08018421 0.095270835 0.01654054 0.075131096 0.029935207 0.044470895 0.09228826 -0.054972425 -0.07767385 -0.051912483 -0.09285533 -0.035738472
john 0.015052308 -0.03451132 0.020345993 0.024744166 -0.02253443 0.048373137 0.03383179 -0.018473059 0.04145275 -0.06253921 0.030569408 -0.03430113 -0.028202603 -0.052707437 -0.05401761 -0.038484633
himself 0.044373743 -0.06152526 0.018190261 0.035426896 -0.051533047 -0.006748488 0.020105029 0.010902525 0.016892623 -0.06301917 0.002348824 -0.009383179 -0.016731054 -0.03716447 -0.001136363 0.03062073
version -0.0022720757 -0.024208805 0.023614053 0.033993706 0.021881642 -0.037177708 0.017173946 -0.02804749 0.025407607 -0.06194717 0.014141836 0.01858651 0.021432778 0.008043747 0.03836641 0.030933628
audience 0.08069359 -0.007456311 -0.038101256 0.026342154 0.018925594 -0.054028127 -0.008413775 0.018062338 0.030417472 -0.022262916 -0.013681534 -0.0005728203 0.036496863 -0.008362066 -0.027468858 -0.012869744
high 0.035801005 -0.035587937 -0.016237343 -0.038885776 0.040573627 0.014284545 0.02063449 -0.0017800579 -0.032786723 -0.051413525 0.02190767 -0.037173104 0.008447666 0.013999323 -0.024740826 0.04090315
house -0.022347633 -0.039681304 -0.022352407 0.014243259 0.06472508 0.023113808 0.00953567 0.030152673 0.017685596 0.06124325 0.033742204 -0.03535612 -0.06650283 -0.054355685 -0.041963246 -0.07261799
night 0.02369904 -0.025274334 -0.007927617 -0.012111586 0.013800856 -0.049862783 0.02321425 0.032752916 0.027159764 -0.05388781 -0.04344217 0.019047683 -0.078622185 -0.027492441 0.006042504 -0.012135003
during -0.028664984 0.014516487 0.03842832 -0.025291566 0.0044770488 -0.0011887238 -0.013817779 0.030817376 -0.04087847 -0.009900275 -0.05149948 -0.034543745 0.032193452 -0.0072701573 0.047821052 -0.027570447
everyone -0.021844164 -0.015884351 -0.048583373 0.11296344 0.039847933 0.06434512 0.017589038 0.021496262 0.042964492 0.023238352 0.09314101 -0.028599668 -0.048888378 -0.08920179 -0.10847351 -0.08965122
left 0.08543266 0.070092216 0.03199536 -0.035454888 -0.08186626 -0.035713762 -0.034922685 -0.052715484 -0.09070733 -0.07188879 -0.023251671 0.07188398 0.08207691 0.08882328 0.08796492 0.063657925
special -0.012027765 -0.07933467 -0.07150047 -0.0045160945 -0.01111543 0.032074653 0.0459684 0.02614393 0.04709097 0.070343055 0.004499354 -0.02571525 -0.08576058 -0.024681805 0.0042767683 -0.052496042
seeing -3.8370214e-05 -0.056229778 0.001510853 -0.0010673961 0.008310807 -0.07420249 -0.008374431 0.00045792956 0.058024604 -0.048252605 -0.0041336915 0.0059048175 -0.0877453 -8.2690836e-05 -0.01721466 0.015097475
half 0.088232346 0.025088234 0.14075345 -0.060635295 -0.09778514 -0.1069041 -0.090742856 -0.14095274 -0.057659026 -0.022299724 -0.12104731 0.11478334 0.11941888 0.08809758 0.13044123 0.054678172
excellent -0.14051904 -0.15645874 -0.20296037 0.15521917 0.18138134 0.16409989 0.1964664 0.11725376 0.15412652 0.10766566 0.17257729 -0.18244031 -0.16249467 -0.18315901 -0.1582368 -0.14348477
wife 0.0400582 -0.0049287644 0.0028844255 -0.037993703 -0.045069262 -0.028246405 -0.025996607 0.0021034912 -0.038428415 -0.005213607 -0.036540747 0.029004814 0.058045276 0.0015650791 0.055509865 0.00760925
star -0.043645125 0.03711813 0.01433852 -0.03357913 -0.03696024 0.023905283 0.014266554 -0.03719132 -0.039080087 -0.049127217 0.021684581 -0.023102941 0.088318735 0.05384614 0.032192435 0.0673051
shot -0.033268925 -0.02632705 0.009372261 -0.0021102647 0.03641942 -0.0014406223 0.050525125 0.009941959 0.05119342 -0.0433991 0.027747674 -0.025424168 0.02818321 -0.027864167 -0.019634387 -0.025807526
war -0.053470485 -0.06609868 -0.015724842 0.03489236 0.07177201 0.009685647 0.045555495 0.016585695 0.008058366 0.013650491 -0.0023306152 -0.022945374 -0.054578993 0.0017240592 -0.081790194 -0.014649982
idea 0.08177461 0.062456004 0.088950336 -0.040387824 -0.052020505 -0.069069706 -0.09051726 -0.06367087 -0.07664163 -0.0083892215 -0.08974928 0.120249026 0.11484756 0.03967966 0.060619466 0.10788168
nice -0.033492375 -0.026028426 -0.03456385 0.06935215 0.071587175 0.030257333 0.061800174 0.041693326 0.09139983 0.02731676 0.036480777 -0.11182203 -0.041003056 -0.07066772 -0.074514225 -0.029658971
black 0.05694443 0.079623714 0.034400683 0.005833544 -0.08264475 -0.03997133 -0.007639049 -0.09193127 -0.03342069 -0.006792946 -0.073943995 0.03593696 0.04827297 0.07396894 0.046199903 0.090004645
less -0.006220441 0.03970823 0.049723953 -0.04184417 1.5841308e-05 0.022254914 -0.026346354 -0.0027897796 -0.07257819 0.053461906 -0.04814852 0.057344873 -0.0069682715 0.069236584 0.025158174 0.024136422
mind 0.07977187 -0.05892574 -0.07760394 0.029312769 0.04395089 -0.020329036 -0.03639787 0.07137671 0.005617153 -0.030528821 0.0088920165 -0.05153472 -0.07040034 0.007089936 -0.091636606 -0.016197318
simply 0.007549587 0.0028803241 0.066411845 -0.08604998 -0.046830807 -0.072239675 -0.00765531 -0.028049733 -0.0801493 -0.060869623 -0.02552734 0.05331074 0.059599865 0.060075156 0.031857166 0.030738534
read 0.09635023 0.02713558 0.090424195 -0.08589918 -0.029981934 -0.10549936 -0.036580972 -0.056948494 -0.11109659 -0.09912276 -0.07094663 0.11702205 0.0185777 0.086003155 0.07730612 0.050646193
second -0.015490091 0.017108168 0.024462324 -0.037528805 -0.016996382 -0.05184063 0.00974348 -0.011303451 0.0087673515 -0.042815477 0.0008701977 -0.010805264 -0.0508912 0.00995127 -0.0025571047 0.010894024
else 0.05636359 0.06450612 0.013183355 -0.034578197 -0.024013003 -0.08041813 -0.07856846 -0.0405596 -0.07126209 0.007828785 -0.05567461 0.08140186 0.09574863 0.08426963 0.01037952 0.10612251
you're -0.020913994 -0.12678242 -0.012553919 0.014716031 0.035450313 -0.056179266 0.01951769 0.014195815 -0.02020705 -0.048162766 0.058350313 -0.006953504 -0.024727562 0.017119698 -0.0029177894 -0.04974576
father 0.039784044 -0.008486973 -0.042790767 0.023385357 -0.0030872768 0.031491637 0.016515827 0.020972 0.004581996 -0.02228132 0.07565767 0.009870242 -0.034393925 -0.039012484 -0.06245291 -0.0010322385
fan 0.017912596 0.053123765 0.018010287 0.002053527 -0.020201469 0.018426144 0.0022439987 -0.0026217059 -0.03256321 0.008958812 -0.00087345 0.040545657 0.022847202 -0.023373643 0.035043463 -0.0033096136
poor 0.12399242 0.1332675 0.13565096 -0.12246465 -0.124699146 -0.16062471 -0.099405944 -0.13650106 -0.13290907 -0.09112372 -0.11272311 0.11754248 0.10505632 0.1121659 0.12449218 0.08924565
help 0.074230194 0.059721857 0.011318402 -0.005344493 -0.023119835 -0.04167654 -0.05383501 -0.011960131 -0.0806664 -0.03973724 -0.0781801 0.0417451 0.09181242 0.0124673685 0.08560757 0.07561181
completely 0.0630708 0.052928213 0.019129103 -0.052709766 -0.0670464 -0.07468207 -0.019237079 -0.037881862 -0.016520133 -0.046957094 -0.029113444 0.041584726 0.082265094 0.07806645 0.0508124 0.03316342
death 0.02373842 -0.01601508 -0.030309118 0.013011963 0.0032473973 -0.0006380069 -0.044575978 0.008735853 0.038658876 0.0380908 -0.005668332 0.041687116 0.024188919 0.011456573 0.03415446 0.006261717
3 0.09211366 0.040830363 0.029822594 -0.11101519 -0.010603584 -0.049722545 -0.087313 -0.07449968 -0.03768691 0.0076201283 0.012642721 0.10065657 0.013632799 0.088517085 0.08136571 0.049052574
used -0.045853816 -0.0019725764 0.046858147 -0.059638977 -0.048056845 -0.014506248 -0.0362991 -0.08533601 0.020007169 0.0207837 -0.06590726 0.06726352 0.015287966 0.03933772 0.013782316 0.020269305
home -0.035556324 -0.078314014 -0.009694067 0.021633307 -0.04554845 -0.055338427 0.027004614 -0.061465498 0.010441961 -0.053207822 -0.040356092 -0.019414298 0.018870141 -0.004182643 0.0065415823 0.011707927
either -0.017101765 0.022008404 -0.009544894 -0.068838604 -1.9023108e-05 0.03588011 -0.00046207116 0.016782269 -0.02772057 0.031599365 -0.014087784 -0.009610287 0.040560015 -0.00502447 -0.008380745 0.030734336
short 0.00017589488 -0.009612978 -0.06578988 0.029505283 0.057394497 0.013407451 0.025938673 0.016663106 -0.043741878 -0.046550848 -0.03456481 0.027266042 -0.06471073 -0.041499518 -0.05650051 -0.025626028
line -0.021048106 -0.031622503 0.05629045 0.002760463 -0.0043530837 0.02348974 0.044580262 -0.020951979 -0.018979045 -0.054104336 -0.017753113 0.054322142 0.032283258 -0.009143108 0.017048156 0.008873826
given 0.013935131 -0.084146544 -0.035256352 0.0032297214 0.03533358 0.08538836 0.030160742 0.08175505 0.045530107 -0.024113778 0.07560553 -0.082633756 -0.004210592 -0.0064514168 -0.04682298 -0.0077328105
men 0.04042994 0.032690935 0.017465582 -0.079131916 -0.018896159 -0.10078574 -0.029252278 -0.06234418 -0.062381588 -0.061893445 -0.04465211 0.023707332 0.058434304 0.10582649 0.03914759 0.06315488
top -0.08686876 -0.11729386 -0.109801725 0.095496535 0.0461305 0.06169473 0.09532578 0.105509475 0.08873263 0.057083808 0.1218467 -0.081290245 -0.0819628 -0.12396445 -0.10992851 -0.076425806
dead 0.038461465 -0.059329733 -0.034946725 0.025124468 0.0059369826 -0.0471314 -0.025307063 -0.022917232 -0.0011650113 -0.052852076 -0.009202127 0.022848027 -0.039490715 -0.056963723 0.012360379 -0.022715062
budget 0.045559585 -0.037786864 -0.023319885 0.018486734 -0.0040267683 -0.044410806 0.02211019 -0.0330683 -0.022847282 -0.048958365 -0.009770344 0.015969133 0.048403833 0.029057814 -0.01000189 0.0076921433
try 0.008928165 -8.9823894e-05 0.046765845 -0.013428655 -0.02334695 -0.07540699 -0.026453126 -0.002019066 -0.04163946 -0.013599299 -0.034407247 0.07215409 0.0062022028 0.034106813 0.015568994 0.0578728
performances -0.07642978 -0.006840174 -0.055666775 0.11569163 0.081255764 0.06651037 0.013755724 0.11238376 0.048072837 0.07726517 0.11737297 -0.11738465 -0.050381884 -0.038091876 -0.04671208 -0.10181726
wrong 0.0083314255 0.05140439 -0.01761431 -0.023496792 -0.02465008 -0.07727779 0.01562479 -0.005415594 0.0047226762 -0.04630552 -0.058252778 0.015058786 0.08536112 0.07683376 0.008760091 0.04255125
classic -0.07295122 -0.12174645 -0.067211084 0.104704596 0.049955834 0.088219516 0.06613612 0.0032452869 0.043292884 -0.0026144967 0.056807604 -0.12925957 -0.12124249 -0.111361876 -0.09776946 -0.04809412
boring 0.24327992 0.08645531 0.12311617 -0.17212766 -0.16580813 -0.11772411 -0.22021596 -0.10153848 -0.15545665 -0.18990593 -0.13478127 0.17566527 0.11432637 0.120721735 0.1669441 0.16114295
enjoy -0.032580312 -0.1943481 -0.059955418 0.07256707 0.13183491 0.06949146 0.06373948 0.07697442 0.1350798 -0.031802796 0.05957216 -0.115099356 -0.16526385 -0.106497854 -0.03951575 -0.09195899
need -0.022096116 -0.054890573 0.015280912 0.008901016 0.01966206 0.042359423 -0.042112384 -0.02065575 -0.029703995 -0.024470337 0.040725134 -0.04316857 -0.050673433 0.030494956 0.017438212 -0.05725126
rest 0.029122254 0.039126363 0.020364495 -0.051385023 -0.043112073 -0.086867996 -0.03890605 -0.03900093 -0.031398915 -0.06899883 -0.03991588 0.095720194 0.06322873 0.06651479 0.03013573 0.014921857
use 0.04585661 0.036241367 0.005822788 -0.024771748 -0.019682562 -0.042479638 -0.010839981 -0.0039917734 0.0075788787 -0.0037917085 0.0036987814 -0.00272501 0.019093603 0.052834142 0.011333348 0.058223195
kids -0.024657223 -0.007955052 -0.01938948 0.014115286 0.017497027 0.04185704 -0.0067905462 0.039276168 -0.03805571 0.0046537924 -0.015596008 0.0137012275 -0.007866106 0.02667667 0.016725639 -0.0056956615
hollywood 0.025881458 -0.035254564 -0.015422694 -1.7529605e-05 0.040328816 -0.052599635 -0.01711409 -0.050672222 -0.039881967 -0.012342365 0.030094707 0.0003901778 -0.019479057 0.03538362 0.0026004529 -0.020298446
low 0.029016502 0.03160857 0.0922528 -0.08003066 -0.03827461 -0.021948876 -0.024192015 -0.051118117 -0.066694714 -0.007685959 -0.0889025 0.01764797 0.070387214 0.010182528 0.07866144 0.019220002
production 0.082652025 -0.015128664 0.013097047 -0.0105623845 -0.019738778 -0.098669834 -0.08111246 -0.03882411 -0.034615435 -0.09053373 -0.04496073 0.095458224 0.013672103 0.017994603 0.074342154 0.055747297
until 0.02506837 0.013556738 -0.08091754 -0.019320844 0.050923113 -0.024859756 0.029936753 0.048947133 -0.005922165 0.04305387 0.008920941 0.0049054734 -0.07891047 -0.00992647 -0.040108103 0.039443586
along 0.019248564 0.015857542 -0.09063384 0.040833067 0.07667233 0.03295873 0.04673326 0.06872645 -0.007202635 0.027748141 0.015070005 -0.07886293 -0.06960326 -0.04436175 -0.013261878 -0.0037671428
full -0.020218045 -0.038206585 -0.037588574 0.07630512 0.00575028 0.013874236 0.0660226 0.0060778814 0.06746927 0.06069582 0.038923156 -0.067434914 -0.029100396 -0.018271957 0.016883604 -0.036530655
friends -0.020151932 0.03715376 0.05610187 -0.03667023 -0.057919092 -0.05539278 0.016085483 -0.07014433 -0.0036572898 -0.09431962 -0.08197588 -0.014949472 -0.03513433 0.054560054 0.048041802 0.0019791727
camera 0.040498987 0.07638847 -0.0037041302 -0.04178785 -0.051738624 -0.076319724 -0.09955735 -0.05418215 -0.048012972 -0.07455978 -0.10514152 0.033948533 0.055295724 0.022975715 0.08852254 0.026585093
truly 0.04255893 0.04055176 -0.023651332 -0.06233543 0.013006943 0.011233187 -0.027230853 -0.012867996 -0.019490931 -0.061892122 0.03942666 0.032162648 -0.05289937 -0.02456716 -0.028165964 0.027860468
women 0.03877138 0.0023332338 0.053761445 -0.04323758 -0.014766241 -0.07367392 -0.05561833 -0.042721063 -0.090058334 -0.055199683 -0.048164096 0.04160496 0.08446951 0.08904593 0.03819323 0.015619177
awful 0.15973303 0.08880039 0.09177867 -0.16799682 -0.1541028 -0.11970308 -0.1358151 -0.1959584 -0.14501013 -0.12138658 -0.11641202 0.19811675 0.16839176 0.1661345 0.16782662 0.18333724
video 0.042074215 -0.067078754 -0.06584086 0.06267771 0.010177655 0.006906719 -0.030464867 0.035452373 0.013476339 -0.0493061 0.03972975 -0.035910506 -0.091976635 -0.0007846571 -0.044350892 -0.059656795
next -0.044420887 -0.08522802 0.005172178 0.050926905 -0.012931829 0.04677087 -0.016598381 0.046697203 0.016250033 0.013460148 0.03511543 0.03591567 -0.0140901655 -0.05659127 0.012225416 -0.009397483
tell -0.021513829 0.02683957 0.021643339 0.0041389326 -0.050707467 -0.00041786756 -0.041218814 -0.012434158 0.033398807 -0.008262552 0.00096243434 0.020002365 0.065058395 0.0017697143 0.02724979 -0.01809005
remember -0.022955617 -0.003307458 -0.030653644 -0.0062547093 0.0788068 0.050097577 0.026326908 0.09950347 0.030634096 0.07998859 0.04907515 -0.05213272 -0.042472888 -0.057278708 -0.011281691 -0.02350416
couple 0.00427858 0.0062131365 0.039799854 -0.027880818 -0.039882164 -0.036594022 -0.073804334 -0.013619857 -0.028018598 -0.049841106 -0.0332728 0.041604623 0.014321661 0.0028841202 0.033168826 -0.014924748
stupid 0.13372548 0.012213736 0.077546194 -0.11239772 -0.06950528 -0.13760959 -0.13803856 -0.13042329 -0.123539336 -0.07119393 -0.1039384 0.103566766 0.022637956 0.076383 0.10225946 0.03732131
start 0.012967788 0.05627767 0.06090793 -0.03827533 -0.05119553 -0.05510656 -0.0094100125 -0.013985246 -0.010013726 -0.049424265 -0.020614143 0.07808661 0.044417057 0.0006894551 0.04920447 -0.008328947
stars -0.03666064 -0.05987982 -0.0681439 0.06636929 0.048651464 0.04967802 -0.03743801 -0.09055468 0.053045657 -0.08511734 -0.015482097 0.0114069935 -0.03441402 -0.0029657003 0.0018701421 0.004277848
perhaps -0.049950298 -0.019852877 -0.019075138 0.054214794 0.017206306 0.051625304 0.033032216 -7.161495e-05 0.036831673 -0.04990512 0.038606267 -0.02608457 0.047652368 0.031284653 0.035217192 0.030068096
sex 0.0134974215 0.032119054 0.037132137 -0.06580102 -0.08281837 -0.061521877 -0.035471033 0.007814135 -0.04894983 0.038655005 -0.015906285 0.02805803 0.032456845 0.01927057 0.025247885 0.013178361
mean -0.03117497 -0.012801394 0.04357299 0.014588165 -0.04125408 -0.038878877 -0.012015464 -0.04852826 0.07013449 -0.0065658092 -0.0751469 0.0606436 0.028179044 -0.006676711 0.055374514 0.0050998805
came -0.0061031883 -0.018971805 -0.026519164 0.040703196 0.005716527 0.007613872 0.00264104 0.050238144 -0.004506454 0.022417346 -0.02478171 0.009885946 0.04124684 0.007314185 0.03340262 -0.0061117024
recommend 0.014954627 -0.0304016 -0.06476939 0.067019835 0.05679295 0.0651122 -0.05012318 0.038944922 0.0035382449 -0.08221873 0.07054408 0.0001266633 -0.028489871 0.004153109 -0.06496951 -0.008037729
let 0.021387013 0.066567004 0.015374447 -0.066111036 -0.009209205 -0.053068317 -0.045722067 0.0062955115 -0.08422884 -0.056447066 0.008710742 0.033395205 0.023240523 0.07674681 0.0077433367 0.0700575
moments -0.00038208542 -0.014090166 -0.009763401 0.036064345 0.009392031 0.034073498 0.065147184 -0.030761221 0.041571304 -0.01599936 -0.044041295 -0.049216688 0.053780388 -0.040666237 0.0023755948 -0.05526126
wonderful -0.045930855 -0.13638614 -0.19729766 0.15270819 0.13936931 0.11366058 0.0558863 0.10438149 0.15915133 0.029171938 0.10876359 -0.15393312 -0.20542373 -0.17169443 -0.16985033 -0.16211607
episode -0.02816923 0.01092483 0.0052703875 0.051559348 0.0027803832 0.012817045 0.060233384 0.011415092 0.074033745 0.036529154 0.00787709 0.01674348 -0.06773358 -0.02759839 -0.07325952 -0.055636402
understand -0.06818688 -0.055248477 -0.09507308 0.079492204 0.09062187 0.023121158 -0.018206632 0.08950106 0.04225594 0.06542667 0.0032861228 -0.016935289 -0.03145886 0.0016348556 -0.051455393 -0.057656676
small 0.01862964 -0.019114438 -0.004843601 0.04303401 0.04678286 -0.00792974 -0.027457446 -0.0025677844 0.022886492 0.038404483 0.027754396 -0.04495817 -0.0070972443 -0.032083787 -0.017214937 -0.04294435
face -0.06425259 -0.04855468 0.040282987 -0.014390468 0.030017098 0.017009147 -0.0025484047 -0.050339255 -0.049784236 -0.05610169 -0.02654331 0.0010135941 0.03321541 -0.039645784 0.036172975 0.028420033
terrible 0.10091628 0.05781211 0.032483697 -0.13686945 -0.13994876 -0.1680925 -0.12793292 -0.12649463 -0.1154496 -0.16604288 -0.0933938 0.12063395 0.06854229 0.07282957 0.08564374 0.06226174
playing 0.08896288 0.05665474 0.057006013 -0.082886234 -0.020754177 -0.07231587 -0.033051293 -0.100332834 -0.052461036 -0.025409028 -0.045922168 0.024425859 0.011640782 0.087950654 0.069307484 0.01968985
school -0.0055956584 0.027846884 -0.022405444 -0.02748647 -0.013486211 0.008968347 -0.018948426 -0.030108878 0.013787784 -0.03685107 0.050577357 0.011941884 0.016023584 0.015090073 0.008760176 0.04261464
getting 0.0597786 0.07322921 0.10205965 -0.008655585 -0.071710594 -0.042653367 -0.04646535 -0.018879008 -0.03344001 -0.08643351 -0.007916094 0.08501046 0.06324571 0.01783102 0.10719694 0.0744357
written 0.0884324 -0.012260272 -0.014061859 -0.07469141 -0.032161288 -0.09094762 -0.034213763 -0.049110703 -0.045986574 -0.02198657 0.009775533 0.013797745 0.033632893 0.019513275 0.08131692 -0.008119935
doing -0.007011954 -0.028977392 -0.022482498 -0.038367562 -0.026756143 0.0007200963 -0.0060636634 -0.015240582 -0.035074353 -0.0368009 0.02106013 -0.024067318 0.02633778 0.023239857 -0.01180589 0.009199162
often -0.09552731 -0.05809417 -0.104041025 0.019420225 0.05021441 0.029247176 0.061255332 0.010804797 0.04048331 -0.021896869 0.05714259 -0.106318474 -0.044540573 -0.092613846 -0.003101871 -0.027545474
keep 0.03348582 0.03999318 -0.0056344853 0.0058302754 0.025593124 -0.046314064 0.0077795703 -0.008808972 0.011089244 0.021897763 0.006008375 -0.04271116 0.035432976 -0.019150654 0.0150937615 -0.030417806
early -0.01645817 0.055910047 0.033502266 -0.045633063 0.00035217963 -0.053541437 -0.045819715 0.007687116 0.02378717 -0.027134355 -0.020507144 0.051341716 -0.042851165 -0.012900696 0.012477427 -0.03932218
name 0.09794939 0.054736994 0.044152394 -0.055069406 -0.047983017 -0.09931011 -0.08266378 -0.06843516 -0.106493115 -0.08833857 -0.0760933 0.039543007 0.07595925 0.07977845 0.023965282 0.014524032
perfect -0.11599168 -0.18451633 -0.1837995 0.15206702 0.18221638 0.20026429 0.1922379 0.15560098 0.18560709 0.15853144 0.21862459 -0.21539788 -0.20793091 -0.1900402 -0.16867003 -0.16901393
style -0.017953617 0.00407094 -0.017664611 -0.050361466 -0.030736225 -0.025354685 -0.049182978 -0.018486515 -0.012049519 -0.016699513 -0.028346624 0.06028414 0.0316324 0.03656119 -0.014452204 -0.014904681
human -0.027268084 0.006771322 -0.06793094 0.018707331 0.014765108 0.07247882 0.02931845 0.08631428 0.065878786 0.05085318 0.061876625 -0.0016056929 -0.01715696 -0.008860566 -0.021359425 -0.053108796
definitely -0.098733604 -0.03137509 -0.13130896 0.058556262 0.07886685 0.1299545 0.038618058 0.12470228 0.066238165 0.09571815 0.077376656 -0.059246004 -0.08800835 -0.13082567 -0.118004024 -0.11749104
gives 0.022690307 -0.019265352 -0.05728985 0.031197257 0.00042740756 0.016785763 0.04475956 0.040943604 0.014087476 0.009146025 0.07071897 -0.013230096 -0.026066396 -0.019925801 -0.06826036 0.02333502
others -0.013509255 -0.04384563 -0.026618883 0.058553867 0.09090758 0.034437336 0.05628445 0.04253439 0.037304994 0.005909971 0.06624534 -0.069325686 -0.09411348 -0.08536218 -0.042305943 -0.04507596
itself -0.0106760245 0.1235711 0.04895155 -0.07550579 -0.04428663 -0.006065893 -0.021168815 -0.06493445 -0.08858594 -0.037022628 -0.08616035 0.02187238 0.106730245 0.06189527 0.044370607 0.07368932
lines 0.04494655 -0.02417213 0.01236771 -0.06936517 0.021330502 -0.025054144 -0.037675485 -0.06621842 -0.030802138 -0.010162942 -0.001614572 0.03693185 0.018924052 0.029963106 -0.016091757 0.055852376
live -0.012910798 -0.011384249 -0.022550875 0.04762279 0.056076657 0.0032350114 0.021092348 -0.0024118049 0.037032638 0.03385436 0.0280612 -0.048652615 -0.058625367 -0.045926876 -0.06272556 -0.03998826
become -0.02069418 -0.033340193 -0.02094628 0.055293996 -0.009685421 0.006144735 0.037000127 0.046175268 0.0793099 -0.031626124 0.047424328 0.018406201 -0.049401235 -0.059062086 -0.040613614 -0.04910884
dialogue 0.018320233 -0.006536278 0.036000255 -0.0710018 -0.040053774 -0.074577674 -0.023863897 -0.06384022 -0.07635627 -0.08639085 -0.02771417 0.052663628 0.095202476 0.04802737 0.054679412 0.011387248
person 0.051691644 0.021450527 0.0066366065 -0.019182501 0.023114176 0.024743248 -0.0042869104 0.038784817 -0.058983456 -0.022055238 0.039337374 -0.0402142 -0.003654366 0.056805156 -0.024341824 0.043417815
lost 0.038826056 0.041490182 0.022481577 -0.040833067 -0.021605466 -0.008518928 -0.017189387 -0.036396608 -0.009313526 -0.110135004 -0.044036873 0.079472035 -0.019494241 0.06506121 0.027498156 0.032917876
finally 0.05041156 0.066098735 0.042830285 -0.05037188 -0.04943777 -0.015807953 -0.045044057 -0.03818364 0.02968742 -0.052281793 -0.013671109 0.0052611507 -0.048786804 -0.017566932 -0.0101662055 0.007543605
piece 0.04657638 -0.03693378 -0.0057181865 0.032460153 0.026151901 0.018873185 -0.019786842 -0.025181655 0.060766123 -0.024716455 0.078228995 0.011844484 -0.05438959 -0.0709371 -0.042665772 0.029436193
head 0.044130214 0.050194405 0.09704022 -0.008074405 -0.03747975 -0.07315229 -0.050391387 -0.057922453 -0.0040972023 0.009888585 -0.030706497 0.049294427 0.05602494 -0.009486848 0.028355865 0.037410703
case -0.081049874 -0.08267671 -0.010431782 0.05842421 -0.014246513 -0.022630706 0.002474594 0.00075834204 -0.020050809 0.030164858 0.052666385 0.026148519 -0.04621437 0.022982072 -0.02026498 -0.0135420505
felt 0.027408173 0.014309834 0.042053822 -0.05704219 -0.00662229 -0.060028657 -0.044272654 -0.07324406 -0.08402112 -0.023483006 -0.08016851 0.08060303 0.043283377 -0.0056549427 -0.0053764125 0.021976028
yes -0.02567635 -0.058047365 -0.020561356 0.035157844 0.01799105 0.010124464 -0.002685872 -0.022866432 -0.019362237 0.038374 0.030357389 -0.016930401 -0.055311397 -0.041226145 -0.0035586369 0.028030334
liked -0.089286886 -0.046697233 -0.09242176 0.13320689 0.08995673 0.06161144 0.13483523 0.123216145 0.082119696 0.16043024 0.13757409 -0.0651841 -0.112638555 -0.057003614 -0.081131674 -0.10845458
supposed 0.10656708 0.0038174212 0.098055616 -0.08970398 -0.09465152 -0.05666568 -0.068129584 -0.033118077 -0.09614937 -0.08000018 -0.036835704 0.10353894 0.09686222 0.087459944 0.07961801 0.03681607
title 0.0029806292 -0.034706555 0.016898552 -0.012226106 -0.0074934983 -0.051106267 -0.031148925 -0.020579929 0.016258396 0.013419262 -0.04842102 0.005786768 0.011073851 0.06080682 0.008278085 0.04810895
couldn't 0.078080915 0.014639135 0.0059700003 -0.09474246 -0.0567614 -0.04903 -0.0246501 -0.014238316 -0.09667562 -0.048444275 -0.0018306427 0.00042538776 0.018535739 0.0049662823 0.07636189 0.072524026
absolutely -0.017491626 0.02568786 0.009618272 -0.016883733 0.037499826 -0.040586628 0.0007297285 -0.0005933798 -0.0073004384 0.02711371 0.05524038 0.024552416 0.051073745 0.017648794 0.02401351 -0.0014224874
white -0.047239196 0.002131628 -0.06955179 0.05101947 0.038167387 -0.025186103 -0.029331774 0.028146436 0.02242595 -0.017456843 0.027188376 -0.016128866 -0.003781277 -0.07273898 -0.032959994 0.010800065
against -0.007593868 0.030379945 -0.01394339 -0.01525894 -0.016745064 -0.011420119 -0.06267572 -0.033327788 -0.0011815323 0.01023158 0.03177486 0.04847602 -0.018014956 0.019202776 0.013706683 0.016888743
boy 0.017873526 0.04918018 -0.00838453 0.0070537324 -0.0269059 0.00054929 0.030448962 -0.0036417036 0.025073871 0.07392479 0.022245608 -0.062227175 0.0012915847 0.016363444 -0.010488778 0.029279273
picture -0.051236026 -0.025005972 -0.039797064 -0.0076184915 0.042468518 0.055864826 0.06954694 -0.030106792 -0.03179286 0.0015318287 -0.032516174 0.009169311 0.0010784572 -0.005682271 0.0010397021 0.004729302
sort -0.021582037 -0.024425462 -0.054627962 -0.033148095 -0.01813564 0.008171668 -0.049551956 0.03109971 0.0420505 -0.02268518 0.038436905 -0.0069155996 -0.019192966 -0.015226118 0.020212604 0.050728273
worse 0.09109952 0.079314366 0.07784838 -0.09395377 -0.045907248 -0.12485181 -0.16181603 -0.12229629 -0.055633336 -0.11868214 -0.07665968 0.101331405 0.04448053 0.053411003 0.04072354 0.10749201
certainly 0.023615303 0.018167468 -0.009726066 0.025303664 0.052599274 0.07289176 0.0593054 0.037098985 -0.040830463 0.06466273 0.05840616 -0.044789497 0.00075316 0.014993911 0.0073731663 0.012997303
went 0.029961057 -0.015389431 0.016941756 -0.04614695 -0.053898655 -0.0516271 -0.052292526 -0.049942076 -0.040817954 0.018694721 0.032588188 -0.019146105 0.056601442 0.010807259 0.012320204 0.045744024
entire 0.08769687 0.013247892 -0.014800011 -0.0683134 -0.092641175 -0.06916956 -0.11629703 -0.07715689 -0.003225415 -0.10326618 -0.04246487 0.0537773 0.021086069 0.06510701 0.04589288 0.101038285
waste 0.2317598 0.27044004 0.14857629 -0.22723964 -0.18957706 -0.20478052 -0.28616604 -0.2385726 -0.24503894 -0.30328882 -0.24617426 0.27314278 0.14795685 0.229996 0.25292656 0.20631693
cinema -0.018627122 -0.085387155 -0.054819632 0.10210836 0.054489966 0.035197243 -0.013115556 0.05702136 0.10873395 -0.0061760214 0.04720998 -0.014337587 -0.12026142 -0.097304046 -0.042963702 -0.047113087
problem 0.0041878987 0.010632335 0.023648296 -0.08873924 -0.053824637 -0.0054854234 -0.020990992 -0.0058957674 -0.10197528 -0.015349216 -0.023731522 0.04415427 0.053183265 0.048622154 0.07496239 0.015701039
hope -0.019984977 -0.06345832 -0.111910366 0.04428917 0.040702723 0.00745061 0.022136334 0.051550757 0.05102719 -0.03404061 0.03966986 -0.04401393 -0.06594617 -0.028608248 -0.06703236 -0.095503286
entertaining -0.07793831 -0.100395076 -0.13560528 0.11721619 0.1155192 0.14464875 0.05866097 0.05568644 0.115209915 0.008165224 0.0896631 -0.07481752 -0.13283546 -0.0970245 -0.11518438 -0.0872612
she's -0.00082216563 -0.07833465 -0.05282536 -0.016529046 0.05112681 -0.017674912 -0.0041195317 0.020235375 0.050021082 0.032974575 -0.025433322 -0.017079113 -0.030145084 0.022477597 -0.054100133 -0.031244421
mr 0.015093415 -0.0582232 -0.067210354 0.022839101 -0.013225529 0.022648823 -0.009364573 0.043868333 -0.014411401 -0.0014494131 -0.008787134 -0.055908967 -0.009052202 -0.044442866 -0.048124358 -0.0509272
overall -0.0067207245 0.017727047 0.011102894 0.0017347957 0.012565751 0.024135176 -0.004563669 0.031456236 0.043125205 0.030478306 -0.015615985 -0.05353226 0.020762768 -0.04378725 -0.049727954 -0.0065868916
evil -0.028186511 0.024550997 0.002070235 -0.024673415 -0.049890704 -0.025568193 0.028756958 -0.0065516187 0.0043476303 0.03890428 -0.051714707 0.048533708 0.031435676 0.04196774 0.01832841 0.01012239
called -0.0010844123 -0.051177114 0.04487854 0.0136637725 0.013624032 -0.05012163 -0.032255992 -0.010931167 -0.052681033 -0.027596598 0.01418488 0.06838619 0.023662457 0.0010578437 0.022363633 0.016535439
loved -0.12999395 -0.050214265 -0.13861407 0.1293425 0.112541266 0.1394587 0.1394061 0.12431098 0.13859557 0.0918291 0.13512148 -0.13256565 -0.07615315 -0.07232219 -0.14622279 -0.10197469
based -0.033712942 -0.061092228 0.018174045 -0.028250646 0.02411654 -0.031503983 -0.023871016 -0.026314905 0.017984614 -0.05457271 0.020950569 -0.063939914 -0.057039615 0.025247222 -0.034609392 0.0020097236
oh 0.14474799 0.06058104 0.023173712 -0.11469708 -0.09383658 -0.14903331 -0.13640788 -0.11198586 -0.06259891 -0.122441955 -0.051855646 0.052850734 0.0012402666 0.047521453 0.08238549 0.10084132
several -0.053994108 0.028261472 -0.040849894 0.033808183 0.01196023 -0.03077852 0.026633386 0.04138894 0.018068949 0.045174878 0.055840656 0.023641517 -0.027159296 0.010182924 -0.0032918854 0.009592308
fans -0.037555587 -0.05409568 -0.048665974 0.05988595 -0.036169484 0.057554007 -0.006001135 -0.012806329 0.042667665 -0.0679971 -0.04902668 0.0076155397 -0.041872106 -0.05029634 -0.03805731 -0.008762003
mother 0.063451424 0.026419729 0.07700749 0.004796325 -0.055313352 -0.024344163 -0.03188952 -0.08004304 0.0069098594 -0.023916297 -0.10187969 0.03243929 0.018375395 0.07457387 0.045359604 0.06106383
drama -0.034960374 -0.017866405 -0.042881858 0.08582365 0.06243975 0.0612484 0.011087153 0.044425838 0.063697144 -0.017500833 0.06187688 0.007906614 -0.08718673 -0.008489763 -0.0153818205 -0.05092258
beginning -0.01164367 -0.017267589 -0.068479545 0.036720783 0.0374349 -0.012955371 0.057749614 0.053037275 0.017889448 0.05699117 -0.032010302 0.0023790852 -0.04947816 -0.06688397 -0.04331211 -0.018000994
killer -0.023648407 -0.034698244 -0.074739695 0.030376514 -0.016558288 0.0023366574 -0.0063866302 -0.013951308 0.03002208 0.04241777 -0.004760459 -0.033164416 -0.008316767 -0.06101569 -0.04464761 0.00043009306
lives -0.026925026 -0.0018045598 -0.016221343 0.035086293 0.027850434 0.0385858 0.007625634 -0.0076585184 0.05745859 0.056642365 0.028345484 -0.060281683 -0.0108975405 -0.034901954 -0.05246559 0.010834174
5 0.038981598 -0.034558896 -0.047332015 0.025516925 0.0828098 0.0017299358 -0.01710331 -0.030555848 -0.018560454 -0.11940081 0.023520427 0.003820887 -0.13856435 0.0018589583 -0.017062834 -0.011921411
direction 0.044216603 0.04186153 0.03048559 0.014638718 -0.054109626 -0.06618172 -0.0636261 -0.045599107 -0.0031020462 -0.082772285 -0.046420246 0.082454674 -0.009584155 0.015335497 -0.0019670553 0.052503165
care 0.043905705 0.057078894 0.040250476 -0.1092799 -0.04666304 -0.043280873 -0.061881855 -0.08180421 -0.047452793 -0.13279836 -0.09803367 0.069761224 0.0528205 0.106995165 0.048639756 0.045716297
already -0.00576865 0.041609943 0.08665679 -0.05197665 -0.0105545595 -0.021627156 -0.019121164 -0.058359534 0.006412465 -0.04734737 -0.016361522 0.075063415 0.08725723 0.06886648 0.057215303 0.02030019
becomes 0.05354456 0.009487699 0.08090706 -0.055070743 -0.052403662 -0.01400767 -0.07850288 -0.100457 0.0011543953 -0.011996115 -0.022552688 0.042839706 0.07073792 -0.00059181853 0.030513437 0.08154409
laugh -0.025282037 -0.042379532 -0.03829567 -0.0043275733 -0.02135143 -0.023280583 -0.016769996 0.0013890084 0.036444414 -0.08183323 0.0389166 0.00064177264 -0.0694035 -0.03005306 -0.06981378 0.038204733
example 0.100679 0.038693223 0.0027483718 -0.09306324 -0.014207926 -0.07603047 -0.060038093 -0.07787561 -0.095477365 -0.06372071 -0.064268485 0.06562996 -0.024762278 0.028323544 0.09068948 0.05700389
friend 0.0055760248 0.017902244 0.008938111 0.0019644825 0.003576017 0.026010247 0.017168324 -0.051645115 0.0028760666 -0.07932479 0.00089901395 -0.003917622 -0.011327427 -0.02145557 -0.0051951855 -0.021984465
dark -0.054174628 -0.05616429 -0.08978236 0.1120323 0.13077784 0.03781937 0.023072861 0.06589727 0.041576367 0.09110858 0.061319772 -0.06098175 -0.024343902 -0.06565341 -0.1022332 -0.078945726
despite 0.0019983551 -0.05290634 0.04199209 -0.040554855 -0.047390282 0.005023754 0.014789549 0.016087217 0.043245252 0.005721869 -0.044926792 0.021141151 -0.011501665 0.03134047 0.018095674 0.037556473
under 0.044053383 0.021607833 0.03511728 -0.034348805 0.017410526 -0.052313324 -0.050302222 -0.017117556 -0.0020334984 -0.033404253 0.0014935404 -0.00070897245 0.0073090713 -0.031399205 0.002053205 0.03639873
seemed 0.030583339 -0.05888036 0.02104997 -0.044990603 -0.027911972 -0.06094581 -0.02200877 0.027643595 -0.045615718 -0.03677014 0.020383786 -0.028600357 0.02374573 -0.0074083963 0.047880888 -0.022349102
throughout 0.079328716 -0.023581514 -0.08691878 0.0048426823 0.044363815 0.0023176204 -0.014399895 0.03922189 0.07205638 -0.06825297 -0.0015400181 -0.058327 -0.03618359 -0.0770701 -0.008400469 -0.032300696
4 0.20516832 0.15314992 0.097654745 -0.14488882 -0.12224514 -0.11184502 -0.20991261 -0.114898354 -0.14120506 -0.07407996 -0.165291 0.19519183 0.06671959 0.11188202 0.07844385 0.11378745
turn 0.056637105 0.09912397 0.009729012 -0.043190084 -0.034132898 0.0024582138 -0.10277243 -0.03013768 -0.03588989 -0.07340972 -0.03717068 0.03538579 0.028898936 0.08592637 0.015343286 0.030082833
unfortunately 0.0551755 0.04690472 0.0703798 -0.07755504 -0.09070827 -0.10177356 -0.07258947 -0.06697307 -0.09104445 -0.08514505 -0.12787971 0.10558555 0.006742526 0.04193437 0.07306551 0.047191124
wanted 0.021317633 -0.034827173 -0.051178426 -0.052718315 0.029156838 -0.020977028 -0.08050712 -0.030006832 0.03693942 -0.016465995 -0.014132708 0.04592185 0.006903025 0.037590135 -0.036888387 0.03854899
i'd 0.04729421 0.0013101376 -0.028309744 0.04965851 0.097603515 -0.013408181 0.00246629 0.04123427 0.031825867 0.0501298 0.06519059 -0.045435227 -0.107832186 -0.0048420806 -0.097947754 -0.013703248
 0.04224972 0.05011852 0.023342626 -0.04035338 0.044646136 -0.026966302 -0.037856158 -0.01180586 0.005187484 0.014360157 -0.027175907 0.013647977 -0.050940815 -0.003129256 -0.001595438 -0.013370634
children 0.044516593 -0.05706593 0.040735357 -0.029602835 0.026858069 -0.0099249 -0.069377236 -0.0028852283 -0.030374415 -0.043847498 -0.05874895 -0.0277665 0.014048543 0.040722445 -0.025771223 -0.04163537
final -0.07222674 -0.031485043 -0.039454095 0.00069992925 0.0044120154 0.06359913 0.097415514 0.07237689 0.053247053 0.014102833 0.048765637 -0.019591274 -0.038212482 -0.06890216 -0.044910017 -0.044659786
fine -0.015932368 -0.0944443 -0.13374624 0.12916344 0.08908127 0.05948016 0.045096222 0.09875823 0.09679318 0.031542867 0.09626405 -0.06689192 -0.10469591 -0.045800306 -0.09840909 -0.07215091
history -0.036935266 -0.06622909 -0.0987923 0.06684307 0.038471214 0.08053381 -0.014013739 -0.024588693 0.040533084 -0.01856149 0.0047660773 -0.0723032 -0.10173888 -0.09254509 -0.034297526 -0.01928712
amazing -0.09672418 -0.11550467 -0.17560288 0.094265305 0.08400839 0.11451578 0.03528534 0.15190606 0.09456258 0.038258813 0.14808337 -0.07037203 -0.13294348 -0.12215097 -0.10024935 -0.14733505
sound 0.094008744 0.107934505 0.0793197 -0.018139606 -0.05339516 0.006360011 -0.0054362756 -0.074960254 -0.0067273686 0.023508606 -0.020161306 0.05962981 0.022924801 0.09686565 0.049861208 0.02354853
guess 0.074240305 0.0053351056 0.0083096195 -0.11261218 -0.083229944 -0.09467565 -0.048584793 -0.073827 -0.054425076 -0.04172107 -0.09508344 0.1061002 -0.007291797 0.09401029 0.066946425 0.08382657
heart -0.004781157 0.030907677 -0.0480218 0.09470144 0.08933787 0.10544299 0.10974939 0.086901605 0.0924907 0.01519906 0.07559334 -0.050069693 -0.090885215 -0.053801525 -0.026246179 -0.03728479
totally -0.048310716 -0.021273429 0.005740065 0.025383018 -0.06930627 -0.032808505 -0.0069246576 -0.0706841 0.03136906 0.019749116 -0.0010879105 0.030698515 0.08126188 -0.012810091 0.026828762 -0.021052215
lead 0.0060579306 -0.020271251 -0.007409486 -0.0067525124 -0.008880611 0.03474612 -0.031428717 0.015588812 -0.032304097 -0.010046519 0.034719888 0.047662817 -0.01450608 0.057302985 0.0012142219 -0.003056683
humor -0.048298873 -0.07291034 -0.025875665 0.056207962 0.099670604 0.06639415 0.08308233 0.046488788 0.104824096 0.053287234 0.09058192 -0.039797477 -0.10883126 -0.10666855 -0.04339768 -0.045078143
writing 0.01270096 0.002050988 0.041669317 -0.091702305 -0.009161772 -0.03929776 -0.020492928 -0.06089057 -0.056868713 -0.0763342 -0.038248956 0.0980374 0.10224051 0.06266463 0.088030025 0.022685146
michael -0.016530843 -0.03840037 0.00570181 0.032962926 0.02900693 0.010988217 0.038065482 0.026642086 0.019009136 -0.0001778749 0.059249155 -0.029652808 -0.00871474 -0.07654633 -0.0634521 -0.070054814
quality 0.043316346 -0.053180017 0.041972954 -0.023788419 -0.023766942 -0.019982556 0.033312574 -0.017502856 0.032830525 0.011894976 0.0021774904 0.03426972 -0.013944073 -0.008807047 0.03872452 -0.044656202
you'll -0.019871583 -0.04654348 -0.10032135 0.056166295 0.028269006 0.029375553 0.07522717 0.010488183 0.06531571 0.071687266 0.023217563 -0.022740593 -0.1377064 -0.043377697 -0.0356837 -0.023312692
close -0.027106186 -0.016769376 -0.060386505 0.031488925 0.03009746 0.059845265 0.04039518 -0.020633398 0.015806694 0.031384546 0.038628113 -0.038482085 -0.004447059 -0.051625468 -0.016710788 0.011021195
son 0.04196917 0.026112339 0.037988994 -0.014512665 0.051748347 0.03738623 -0.022842413 -0.029994836 0.0015308339 -0.04756429 0.032846306 -0.017721722 -0.0104074385 -0.040082715 0.037702568 -0.047528032
guys -0.043233737 -0.015261563 -0.034217544 -0.028046977 0.039764475 -0.0026851834 -0.032360595 0.026806893 -0.05456875 -0.045836315 -0.009752423 0.03256165 0.05365951 -0.031070631 -0.052692365 -0.016823635
wants 0.02897988 0.014765375 0.03961998 -0.018652854 -0.019592533 0.028598502 -0.044064336 -0.049855378 -0.031060455 -0.0073711867 -0.018706234 -0.024970276 0.010368669 -0.0058127935 0.015330608 -0.025283422
works 0.016067583 0.050838467 0.034035925 0.044016365 -0.0052785017 -0.027591499 -0.028775174 0.0072286325 0.054430928 -0.027530685 -0.019225761 -0.04125447 -0.03215281 0.003841366 0.02971914 0.03557716
behind -0.030745272 -0.03191619 -0.07249033 0.07641561 0.019703764 0.080241725 0.10209714 0.012810206 0.06890694 0.04253701 0.02200739 -0.022204898 0.032894343 -0.03677435 -0.00028708088 -0.05491322
tries 0.13098481 0.108953394 0.11498171 -0.12716863 -0.10887213 -0.13224332 -0.110145114 -0.17390193 -0.13356917 -0.16222575 -0.0963231 0.09594672 0.10675732 0.13672812 0.1551757 0.07933192
art 0.00822544 -0.014502001 -0.0014536125 0.06834362 0.00041963256 -0.0015576539 0.01791979 0.051531497 -0.023268951 -0.050546866 0.018501053 -0.06220476 -0.03398472 0.006181997 -0.05427248 -0.0689122
